{"activation_functions":[1,0,2,5],"bias":[[-0.012987548485398293,0.11460040509700775,-0.02482776902616024,0.04294711351394653,0.051526185125112534,-0.09848925471305847,0.04752239212393761,-0.1595689058303833,0.06394694745540619,-0.024051403626799583,0.010718519799411297,-0.06280136853456497,0.0024535562843084335,-0.07425682991743088,-0.011824089102447033,0.0038058364298194647,-0.021411819383502007,0.011139288544654846,0.12228374928236008,-0.03575081378221512,-3.593032306525856e-05,-0.039118316024541855,0.02663988247513771,-0.02638460323214531,-0.006599287036806345],[-0.08068440854549408,0.00018550352251622826,-5.5507156503153965e-05,-0.037008076906204224,-4.789816856384277,0.0012811251217499375,0.0005885774153284729,0.09883458912372589,-0.08556178212165833,0.00046413743984885514,0.09267798811197281,17.74738311767578,0.253079891204834,0.07049757987260818,0.0009840900311246514]],"layer_type":[1,2,2,3],"neurons":[784,25,15,10],"weights":[[0.022581160068511963,-0.0714544877409935,0.07145658880472183,0.011525106616318226,0.02701747976243496,0.002156182425096631,0.06678938120603561,-0.02785048820078373,0.08583668619394302,-0.022230705246329308,0.041901279240846634,0.013589875772595406,0.013784577138721943,-0.050990864634513855,0.08836450427770615,0.09262263029813766,-0.03632091358304024,-0.046355508267879486,0.05323336645960808,0.046160969883203506,0.005143151618540287,-0.0864674299955368,0.0451684445142746,0.019585127010941505,-0.09593985974788666,-0.08134157955646515,-0.04131745174527168,0.08204008638858795,-0.06478209793567657,0.00390488188713789,0.06027114763855934,-0.016039861366152763,-0.01688331924378872,-0.016859741881489754,0.09447924792766571,-0.09253250062465668,0.049638208001852036,-0.06331934034824371,-0.060136571526527405,0.057778481394052505,0.09733734279870987,-0.04925565794110298,-0.03372780606150627,-0.09840762615203857,0.017385337501764297,-0.06415195018053055,0.09320162981748581,-0.013772296719253063,0.07333774119615555,-0.047435346990823746,-0.013286917470395565,0.053494732826948166,-0.06709004938602448,0.010820657014846802,-0.033225078135728836,0.033430323004722595,-0.08400026708841324,-0.06267300993204117,-0.05119939520955086,-0.052003003656864166,-0.05058673024177551,-0.05496614798903465,0.06669989973306656,0.0971081480383873,0.050239913165569305,-0.017025375738739967,-0.07788379490375519,-0.07013023644685745,0.02523149363696575,-0.09683814644813538,0.05803455412387848,-0.03320170193910599,0.07996927946805954,-0.02137124538421631,-0.040625326335430145,-0.07095930725336075,0.07027190923690796,-0.07283224165439606,0.0630280151963234,0.029529757797718048,0.05604114010930061,-0.025860445573925972,-0.068363256752491,0.08015212416648865,-0.01357558649033308,0.042963963001966476,0.028782637789845467,-0.045487262308597565,0.07389046251773834,-0.05566386505961418,-0.010579543188214302,0.015279454179108143,-0.08340882509946823,-0.047676827758550644,-0.009431079961359501,0.05083492770791054,0.03662643954157829,0.07419956475496292,-0.00791887752711773,0.0868578627705574,-0.04956426844000816,0.010503523051738739,-0.07502395659685135,0.09800223261117935,0.049229368567466736,0.002193837659433484,0.0980035662651062,-0.042015139013528824,0.014318019151687622,0.017230220139026642,0.07047399878501892,0.009060761891305447,-0.017979441210627556,0.09024963527917862,0.045479968190193176,-0.03234131261706352,0.08730410784482956,0.09032706916332245,-0.05523949861526489,-0.00820132251828909,0.09941845387220383,0.00940897036343813,-0.0515965074300766,-0.06149977445602417,0.03042963333427906,-0.09927248954772949,0.09388948231935501,0.0608813501894474,0.03692023083567619,-0.06819718331098557,-0.028236472979187965,-0.09872490912675858,0.07758449018001556,-0.028242364525794983,-6.685707194264978e-05,0.05360287427902222,-0.05684000998735428,0.06060883775353432,0.08737041801214218,-0.09667174518108368,0.02331775240600109,-0.058216795325279236,-0.06339850276708603,-0.06589899957180023,0.019280022010207176,0.07963664084672928,-0.0926930159330368,-0.019165219739079475,-0.08387155830860138,0.07330169528722763,0.00155274395365268,-0.04410150274634361,-0.09115449339151382,-0.04323268309235573,-0.08737770467996597,0.08833476901054382,0.020332690328359604,0.07165328413248062,0.07375733554363251,-0.06547986716032028,-0.003035670379176736,-0.04585965722799301,-0.009853414259850979,0.03952399641275406,-0.04452578350901604,0.007276612333953381,-0.06719577312469482,-0.014152709394693375,-0.0184042826294899,-0.0725456103682518,0.024074675515294075,-0.0035819157492369413,0.03798043727874756,-0.09958252310752869,0.08353820443153381,-0.051829542964696884,-0.03900476172566414,0.019756298512220383,0.09401398152112961,-0.0730149894952774,-0.02889641374349594,0.0626622661948204,-0.01207052730023861,-0.07534854859113693,-0.014306309632956982,0.0886513739824295,-0.08047180622816086,-0.09009452164173126,0.08042245358228683,-0.015372125431895256,0.06719392538070679,-0.06033634766936302,0.046389415860176086,0.05548804625868797,0.040666963905096054,0.02464016154408455,0.004278539214283228,0.08811917901039124,0.09599706530570984,-0.010264456272125244,-0.057547178119421005,-0.09641024470329285,-0.0820854902267456,0.06945489346981049,-0.005415343213826418,-0.06165395304560661,-0.015156060457229614,0.003506747540086508,0.07862120866775513,-0.022127864882349968,-0.016982538625597954,0.02664855681359768,0.07811304181814194,-0.07541347295045853,0.029029976576566696,0.059927597641944885,-0.03340116888284683,0.09235800802707672,0.08562786877155304,-0.01715521141886711,-0.0832919329404831,-0.0389811247587204,0.036252979189157486,-0.04065492004156113,-0.044499244540929794,-0.035134829580783844,-0.08109062165021896,0.0654834732413292,0.09158027172088623,-0.01179591752588749,0.03310438245534897,-0.06731515377759933,-0.06633956730365753,-0.07050124555826187,-0.012874891981482506,-0.00953243300318718,-0.02299514040350914,0.079604372382164,0.054227642714977264,0.0603470504283905,-0.06084948405623436,0.09069368988275528,-0.09159373492002487,0.0760934129357338,0.0758640319108963,0.05933308228850365,0.07482457160949707,-0.093903549015522,0.08864178508520126,-0.04465530812740326,-0.02811233326792717,0.05547719821333885,-0.042185306549072266,0.06981649249792099,-0.06417939066886902,-0.08165028691291809,0.0821639820933342,-0.06265660375356674,0.057633090764284134,0.07069862633943558,-0.05529206991195679,0.05847892537713051,0.05646760016679764,-0.07874871045351028,-0.0387081615626812,-0.009643414057791233,0.005969262681901455,0.06393109261989594,-0.016166163608431816,0.06663652509450912,0.06549356132745743,0.07898858934640884,-0.005102942232042551,-0.013528413139283657,0.0644816905260086,0.03307634964585304,-0.05277398228645325,0.06768651306629181,-0.03204428777098656,-0.05333128944039345,-0.09360215812921524,0.07656560093164444,0.04887646064162254,0.02167627401649952,-0.03411133959889412,-0.045446112751960754,0.04477228596806526,0.05198937654495239,-0.07464698702096939,-0.07336457818746567,0.0028182712849229574,-0.06010207161307335,-0.02627803012728691,0.06928108632564545,0.007060499396175146,-0.03296245262026787,0.09235065430402756,-0.04472087696194649,-0.06372574716806412,-0.0878802016377449,0.033028777688741684,-0.08672625571489334,-0.0820126086473465,-0.021422723308205605,-0.07920277118682861,0.015497240237891674,0.044773049652576447,-0.0916355773806572,0.0777905061841011,-0.08238394558429718,0.00795700866729021,-0.03031310997903347,-0.07760639488697052,-0.07568465173244476,-0.07155507802963257,-0.06415391713380814,-0.03421102091670036,0.03164924681186676,-0.029802046716213226,0.08744613826274872,0.07014063745737076,0.05435823276638985,-0.050739411264657974,0.07397404313087463,-0.06853047013282776,-0.08030755072832108,-0.08432110399007797,0.03640133887529373,0.0019376927521079779,0.001334359752945602,0.08041064441204071,-0.0551779642701149,-0.048595745116472244,0.07085256278514862,0.0031114257872104645,-0.033153142780065536,0.026735056191682816,-0.01319825742393732,0.08136101812124252,-0.042708225548267365,-0.06359314918518066,-0.05542873591184616,0.03433484956622124,0.06644517183303833,0.04141820967197418,-0.060365352779626846,0.007855070754885674,0.03571854904294014,-0.006829745601862669,-0.017730403691530228,0.07364976406097412,0.022367125377058983,-0.009451305493712425,-0.03535681962966919,-0.0052382186986505985,-0.07244712859392166,-0.08881846070289612,-0.046980395913124084,-0.02884901687502861,0.09220346063375473,0.03741519898176193,0.011451884172856808,-0.033216964453458786,0.025067657232284546,-0.045387979596853256,0.018740518018603325,0.02097923308610916,-0.059580836445093155,-0.0986407995223999,0.01967465505003929,-0.05069630220532417,-0.0890585407614708,0.032710958272218704,-0.09687023609876633,0.055298950523138046,-0.04207763075828552,-0.03179497271776199,0.007648995146155357,-0.07206283509731293,-0.09590528160333633,0.01609794981777668,0.0648762434720993,0.0033371616154909134,-0.08154025673866272,0.012005123309791088,0.09638876467943192,0.006760386750102043,-0.06472980976104736,-0.0672982707619667,-0.01640881784260273,0.04195418953895569,-0.05846356973052025,0.019017253071069717,-0.08695165812969208,0.08795245736837387,-0.013470963574945927,0.055140551179647446,-0.02139005996286869,-0.07656020671129227,-0.08711691200733185,0.0699099525809288,0.05207149684429169,-0.058227866888046265,-0.03947664052248001,-0.02983684465289116,0.08893369883298874,0.006632037926465273,0.04050418734550476,-0.048233021050691605,-0.0804264172911644,0.08255616575479507,-0.031178148463368416,0.0452287383377552,-0.03022640198469162,0.02043304778635502,-0.0018631143029779196,0.03275911882519722,-0.017536461353302002,-0.052291397005319595,0.05497846379876137,0.008056914433836937,-0.019619368016719818,-0.04285113885998726,0.027786212041974068,0.03336209058761597,-0.08809603005647659,-0.05421610549092293,0.044303104281425476,-0.03344373404979706,-0.06815718114376068,0.049270398914813995,0.09871693700551987,0.06000300124287605,0.029893316328525543,-0.057181987911462784,0.0194148737937212,0.06398513913154602,0.051031533628702164,-0.059622202068567276,0.017730750143527985,0.07266809046268463,0.025984272360801697,-0.07031244784593582,-0.013993676751852036,-0.05297339707612991,-0.040191520005464554,0.012382236309349537,0.06362108141183853,-0.04704255610704422,0.032482195645570755,-0.09241531044244766,-0.044894807040691376,0.05421021953225136,-0.051718734204769135,0.058523520827293396,-0.042161453515291214,0.006261937785893679,0.003086053067818284,0.045738399028778076,0.08801968395709991,-0.07712472975254059,0.06278415769338608,0.0699707642197609,0.04149410501122475,0.09812258929014206,-0.07112347334623337,0.08302327245473862,-0.06485748291015625,-0.06920478492975235,-0.07637322694063187,-0.022203966975212097,-0.023888133466243744,-0.014947495423257351,-0.06558666378259659,0.05725786089897156,-0.07539551705121994,-0.047420889139175415,-0.07839620113372803,-0.048224471509456635,-0.00656678294762969,-0.06796953082084656,-0.06875989586114883,-0.008888301439583302,0.061363689601421356,0.02329622209072113,0.07320155948400497,0.08169028162956238,-0.04853323847055435,-0.08697452396154404,-0.029713502153754234,-0.06071000173687935,-0.07307595014572144,0.009434441104531288,0.016891082748770714,-0.0369877927005291,0.02185618132352829,-0.08871741592884064,-0.08699525147676468,0.016568908467888832,0.03054218925535679,-0.05101802572607994,0.012576105073094368,0.08863238990306854,0.04529045522212982,0.08301246166229248,0.03795718401670456,-0.0649103969335556,0.07772501558065414,0.08141469210386276,-0.07901206612586975,-0.0012414882658049464,0.07665423303842545,-0.08763749152421951,-0.084964320063591,-0.015108153223991394,0.09697828441858292,0.0029816636815667152,-0.020008545368909836,0.060936857014894485,0.007618891540914774,0.005780888255685568,0.015138833783566952,0.014885022304952145,0.04382588341832161,0.0770098939538002,-0.09644395112991333,-0.07668865472078323,0.08082836866378784,-0.029678188264369965,0.035854000598192215,-0.08267713338136673,-0.013208950869739056,-0.008998255245387554,0.005459258332848549,-0.07166533917188644,-0.09092017263174057,0.016881298273801804,-0.08752012252807617,-0.08448463678359985,0.08249867707490921,0.004744704347103834,-0.019646892324090004,-0.017154956236481667,-0.06581846624612808,0.08223091065883636,-0.09638716280460358,0.019766394048929214,-0.045045968145132065,0.07212495058774948,-0.052703067660331726,0.04119822382926941,0.020085180178284645,-0.048412829637527466,-0.005410903133451939,-0.0832952931523323,-0.08053714036941528,-0.07968708127737045,0.08129816502332687,0.053423501551151276,-0.04246290400624275,-0.07366050779819489,-0.060358501970767975,0.058995869010686874,-0.02987736649811268,0.023526201024651527,-0.016236096620559692,-0.08959116786718369,-0.08474628627300262,0.02205662988126278,0.08535610884428024,0.08137819916009903,0.04041936621069908,-0.033528488129377365,-0.021986203268170357,-0.004402751103043556,0.07345375418663025,0.07986685633659363,0.0835600197315216,0.08549898117780685,-0.06110384315252304,0.09759757667779922,0.07781843841075897,0.0401163250207901,0.010481853038072586,0.027434593066573143,0.07856307178735733,-0.02978448197245598,-0.013246065005660057,0.041383616626262665,0.030115267261862755,0.08892778307199478,-0.08806433528661728,-0.09811901301145554,0.061518892645835876,0.01608896441757679,0.09100337326526642,-0.04616643488407135,0.08272955566644669,0.015131458640098572,-0.018061835318803787,-0.00967420358210802,0.05332242697477341,-0.019608300179243088,-0.0729500949382782,0.03276609629392624,0.075746551156044,0.04775727167725563,-0.07493558526039124,-0.06233391538262367,0.03834299370646477,0.017492057755589485,0.0043085976503789425,0.07926328480243683,-0.01974177360534668,0.09314704686403275,-0.08418671786785126,0.026341557502746582,0.04184306040406227,0.031604208052158356,-0.041117217391729355,0.054602693766355515,-0.07075804471969604,-0.00942200142890215,0.0729559138417244,0.011690394021570683,0.09282682836055756,-0.047006845474243164,-0.04139513894915581,0.0007911319844424725,-0.07908932864665985,0.03495963662862778,0.041807107627391815,0.09557071328163147,-0.025166889652609825,0.06295135617256165,0.022220822051167488,-0.0266102347522974,-0.011017843149602413,-0.046598855406045914,-0.0400223545730114,0.09000862389802933,-0.00824657641351223,-0.08725225925445557,0.038860540837049484,-0.06944768130779266,0.04945652559399605,0.08373230695724487,-0.09073446691036224,-0.005981180816888809,-0.0937802642583847,0.04744584858417511,-0.08616901189088821,0.025105874985456467,0.057186007499694824,-0.06551554799079895,-0.060703668743371964,-0.034945353865623474,0.03845982626080513,0.08221038430929184,0.02272956632077694,-0.04263920336961746,0.05415857210755348,0.050124939531087875,0.09513170272111893,0.0949561595916748,0.07884915918111801,0.08653848618268967,0.029660334810614586,0.03476712852716446,-0.024747861549258232,-0.04847238212823868,0.08059561252593994,0.08419085294008255,-0.07860993593931198,-0.03320186957716942,-0.0041750343516469,0.07698967307806015,-0.051290471106767654,-0.04067806527018547,-0.07253404706716537,0.02764095552265644,0.09339015185832977,0.03838610649108887,-0.03878408670425415,0.07686267048120499,0.0530046746134758,0.09156428277492523,-0.07857825607061386,-0.06932459771633148,-0.07037832587957382,0.05895759165287018,-0.04838472604751587,-0.015518666245043278,-0.07723748683929443,-0.06021251156926155,-0.03122132085263729,-0.09476514905691147,-0.07536440342664719,-0.028373541310429573,-0.0019663874991238117,0.07216610759496689,0.0548495315015316,-0.04514327645301819,0.03802516311407089,-0.09973225742578506,-0.08224739879369736,-0.03899860382080078,-0.027140436694025993,0.00354119879193604,-0.07951901108026505,0.049816232174634933,0.09288468211889267,0.08293037861585617,0.06656437367200851,-0.040826234966516495,0.090571328997612,0.05227149277925491,-0.009668342769145966,0.06863855570554733,0.05153283849358559,-0.06879419088363647,0.05476226657629013,-0.05524572730064392,0.0024865055456757545,-0.06859269738197327,-0.0920640230178833,-0.08956015110015869,0.05379363149404526,0.0413796566426754,-0.08608845621347427,0.03259918466210365,-0.09444093704223633,0.001066356198862195,-0.06907029449939728,-0.005927090998739004,-0.06877505034208298,-0.004346872214227915,0.00798034481704235,0.030262906104326248,-0.07454202324151993,0.00692598195746541,-0.05245485156774521,0.04667939990758896,-0.05776707082986832,0.04301140084862709,-0.009962867945432663,-0.008388970978558064,0.025847667828202248,0.006335077341645956,-0.09081785380840302,0.06645194441080093,0.015145877376198769,0.02084893174469471,0.009914656169712543,-0.02200818434357643,-0.049765296280384064,0.03333152458071709,0.01143017876893282,-0.02047395147383213,0.0683729499578476,0.09188982099294662,-0.0857604369521141,0.08095809072256088,-0.07517275214195251,0.09444864094257355,0.017290640622377396,0.08693662285804749,0.0120499636977911,-0.023329593241214752,0.02791852131485939,0.0029712419491261244,-0.0741310864686966,-0.0825493186712265,-0.03734879940748215,-0.08507943153381348,0.06338464468717575,-0.03177597001194954,0.0058122118934988976,0.05497020110487938,-0.05354859307408333,0.09940066188573837,-0.09627614915370941,-0.00718088261783123,-0.09102495014667511,-0.020810673013329506,-0.07917029410600662,-0.013611426576972008,0.04197459667921066,-0.0989680141210556,-0.09624498337507248,-0.09507745504379272,0.046910107135772705,0.09855476021766663,0.05263751000165939,-0.09834203124046326,0.025067320093512535,-0.024136489257216454,0.042790818959474564,-0.015830587595701218,-0.04787420108914375,0.02258935384452343,0.029683979228138924,0.002950308844447136,-0.010849294252693653,0.0021743138786405325,-0.09807868301868439,-0.06479000300168991,0.09810417145490646,-0.06633100658655167,0.05585760623216629,0.0980730950832367,0.03162046894431114,0.027817174792289734,-0.05339282751083374,0.09703760594129562,-0.03810545802116394,-0.09404036402702332,0.029890073463320732,-0.06812259554862976,0.0593516007065773,0.048937052488327026,0.06159215420484543,-0.02096658945083618,0.03027329221367836,-0.033051375299692154,-0.08711330592632294,0.05388082191348076,-0.07569607347249985,-0.01511437352746725,0.07168927788734436,0.08536422997713089,0.015998346731066704,0.02088281698524952,0.010901945643126965,-0.009941283613443375,0.014953717589378357,0.046628378331661224,-0.06872720271348953,0.0993073508143425,0.08693458139896393,0.00012743963452521712,-0.07075461000204086,-0.042393989861011505,0.067469522356987,-0.017290523275732994,-0.09059416502714157,-0.01640498638153076,0.05384640768170357,-0.06338723003864288,0.05883729085326195,-0.03260945901274681,0.07751975953578949,-0.08665075898170471,0.08913177996873856,-0.023277217522263527,0.08157757669687271,-0.06632896512746811,0.026780109852552414,0.07085451483726501,0.036005739122629166,-0.014809748157858849,-0.012266197241842747,-0.07704410701990128,0.04868545010685921,-0.06227617338299751,-0.08834565430879593,0.09887558966875076,0.07359102368354797,-0.014155851677060127,-0.08491052687168121,-0.047541409730911255,0.03550277277827263,-0.09444254636764526,-0.04977190122008324,0.02644933946430683,0.06335864961147308,-0.05004291236400604,-0.07146164774894714,-0.0051513174548745155,-0.07585461437702179,-0.048607323318719864,-0.09586379677057266,-0.06035928428173065,0.0754217877984047,-0.09249311685562134,-0.07685481011867523,0.041517555713653564,0.03215501829981804,0.08064274489879608,-0.059926412999629974,-0.04185709357261658,-0.007834267802536488,-0.05140482634305954,0.021924939006567,-0.035362523049116135,0.08308611065149307,0.007735235150903463,-0.05415774881839752,0.05404744669795036,-0.06239190697669983,-0.01755448430776596,-0.09240249544382095,-0.02493293397128582,-0.04730770364403725,-0.062498919665813446,0.016844287514686584,0.061002228409051895,-0.001734709134325385,0.06656967848539352,-0.049269258975982666,-0.047483135014772415,-0.09427295625209808,-0.005192932672798634,-0.014748548157513142,-0.07775815576314926,-0.015200866386294365,-0.040774982422590256,0.050489641726017,-0.00010841878247447312,0.028632203117012978,0.06019311398267746,0.04867877811193466,-0.04933477193117142,-0.029333235695958138,0.019488180056214333,0.004636814817786217,0.007083554286509752,0.039429012686014175,0.06657465547323227,0.0992291271686554,-0.0664677545428276,0.0892857164144516,-0.02917356602847576,-0.049109455198049545,-0.0028582876548171043,0.045594651252031326,-0.006984586827456951,-0.06200794130563736,-0.0291280634701252,0.03208119794726372,0.09146742522716522,0.04391903802752495,-0.05465860292315483,0.032483335584402084,-0.04803546145558357,0.020929966121912003,0.06293179839849472,-0.07566888630390167,0.01548843178898096,-0.08202722668647766,0.06908738613128662,0.08670414239168167,-0.028487130999565125,0.0807829350233078,-0.06384938210248947,0.08643270283937454,0.07706286013126373,-0.09966856986284256,-0.008903946727514267,0.06109953299164772,-0.06562237441539764,-0.042979612946510315,-0.0814957544207573,0.004815275780856609,0.04449380934238434,-0.009464588947594166,-0.04203419387340546,-0.022661499679088593,0.04531969875097275,0.09041934460401535,0.04692535847425461,-0.02823251113295555,0.028577608987689018,0.0619683675467968,-0.02980152517557144,0.03709876909852028,-0.06136127561330795,0.058711547404527664,0.06199193745851517,0.0545845627784729,-0.06658554077148438,-0.04601088538765907,0.06024434044957161,-0.025824403390288353,0.0838160589337349,0.010654162615537643,-0.008617579936981201,-0.0018863199511542916,-0.07683449238538742,0.02358766831457615,0.06068481132388115,0.08815570920705795,-0.04067442566156387,0.054163869470357895,-0.08349650353193283,0.03643520176410675,-0.06906478106975555,0.04941968992352486,-0.05140690505504608,0.05547633022069931,-0.02387906238436699,-0.02361677587032318,0.07390356808900833,-0.07024800032377243,0.010752268135547638,0.08022736757993698,0.024272244423627853,0.01247944962233305,0.000890652765519917,0.08692748099565506,-0.0031566545367240906,-0.05229639261960983,-0.08607805520296097,0.017545491456985474,-0.07458769530057907,0.043342918157577515,-0.056960076093673706,0.09913782775402069,0.053633298724889755,-0.057256635278463364,-0.04302603751420975,-0.09248312562704086,0.029642047360539436,-0.003953775390982628,-0.01909318007528782,-0.04553239047527313,0.05410514026880264,-0.05639425665140152,0.04755273833870888,0.08570585399866104,-0.08126610517501831,-0.07709679752588272,-0.02894948050379753,0.08953189849853516,-0.010005731135606766,-0.05805597081780434,0.023575183004140854,0.006605945993214846,0.04700146242976189,0.07039274275302887,0.006275207735598087,-0.0016821686876937747,0.09116078168153763,-0.06296183913946152,0.02163405902683735,-0.09162469208240509,-0.033753156661987305,-0.07605535537004471,-0.05059942230582237,-0.0968962162733078,0.07307538390159607,0.0895012766122818,-0.016598299145698547,0.006579023320227861,-0.03305984288454056,-0.06080763414502144,-0.03977423533797264,-0.021584494039416313,0.05147862061858177,0.011566106230020523,-0.09765750914812088,0.05498122423887253,-0.05992972478270531,0.07155229151248932,0.012980669736862183,-0.003943875432014465,0.014399989508092403,0.0528976172208786,0.004447286948561668,-0.024437353014945984,-0.050544433295726776,0.0528845489025116,0.09691621363162994,0.03023190051317215,-0.05125326290726662,-0.07462292164564133,0.07007377594709396,0.09042949229478836,0.05008886009454727,-0.03162222355604172,-0.08855549991130829,-0.038297928869724274,0.0010869101388379931,-0.06234142556786537,0.09197166562080383,-0.009827652014791965,-0.025699490681290627,0.012972485274076462,0.06355519592761993,-0.007052111439406872,0.03213966265320778,0.005176238249987364,0.09483669698238373,-0.0780540183186531,-0.043556954711675644,0.06873165816068649,0.031108057126402855,0.07296527177095413,0.05466730147600174,0.08002135157585144,0.0991671085357666,0.023431386798620224,-0.004733927082270384,0.045945290476083755,-0.07253400981426239,0.06607724726200104,-0.05391683802008629,-0.08829252421855927,0.07355102896690369,0.016849501058459282,0.008064864203333855,0.026844194158911705,-0.05537687987089157,-0.08432062715291977,-0.036150090396404266,-0.011052830144762993,-0.06351945549249649,-0.04234582185745239,0.004739931784570217,0.09110452234745026,0.02836921252310276,0.06820165365934372,-0.05813471972942352,-0.08312893658876419,-0.05761576443910599,0.013496704399585724,0.0781501904129982,-0.0036263277288526297,0.006440347526222467,-0.03974073380231857,0.029195014387369156,-0.01036157924681902,-0.009257195517420769,-0.0714537650346756,0.06957826018333435,-0.0703914687037468,0.061311960220336914,0.07284671068191528,0.055416692048311234,-0.09121305495500565,-0.029330885037779808,0.09340191632509232,0.08310812711715698,0.023869376629590988,-0.025530170649290085,-0.0011251247487962246,-0.06150801479816437,0.07368046045303345,-0.08546193689107895,0.017226126044988632,0.03156599774956703,-0.032168395817279816,-0.07183978706598282,-0.07092676311731339,0.03683401644229889,-0.06076296046376228,-0.08778935670852661,-0.033361468464136124,0.005978436674922705,-0.03653572127223015,-0.049443066120147705,-0.07134269177913666,-0.06069387122988701,-0.06649892032146454,0.07632545381784439,0.0952165275812149,0.03645056486129761,0.011276453733444214,0.08494307100772858,-0.07950910925865173,0.06764081865549088,-0.016676532104611397,0.030361060053110123,0.08199197798967361,0.056045375764369965,0.04310904070734978,-0.010154285468161106,-0.0213810782879591,-0.04349328204989433,0.07208443433046341,-0.06486732512712479,-0.03610914573073387,-0.03742245212197304,0.056793197989463806,-0.07780725508928299,-0.03117196075618267,-0.05114172771573067,0.02864339016377926,-0.0144997239112854,0.04987378045916557,0.029998280107975006,0.05254005640745163,-0.07843045145273209,0.04133781045675278,0.046118881553411484,0.05986733362078667,-0.08435693383216858,0.0513569675385952,-0.017750980332493782,-0.0003271268215030432,-0.021317332983016968,0.07189237326383591,0.07958582788705826,0.06756734102964401,-0.07435104250907898,-0.008081803098320961,-0.03877491131424904,-0.045638978481292725,-0.03639781102538109,0.06716367602348328,0.03502723202109337,0.0433916412293911,-0.08655872941017151,-0.06033053249120712,-0.016982916742563248,-0.09262809157371521,-0.018977835774421692,0.08512852340936661,0.06992153823375702,0.022754285484552383,0.0690438374876976,-0.07771794497966766,-0.04069962352514267,0.02221670001745224,0.009262469597160816,-0.09563300758600235,0.0444427989423275,0.01713363453745842,-0.05293220654129982,-0.022635193541646004,-0.07998020201921463,-0.005048487335443497,0.07531856000423431,-0.030655866488814354,0.03726879507303238,0.08605430275201797,0.04392344132065773,-0.04086389020085335,0.06903760880231857,-0.07228726893663406,-0.04652810096740723,-0.01272160280495882,0.07409698516130447,0.06657487154006958,-0.0029183262959122658,0.06194883584976196,-0.017539558932185173,0.029605451971292496,-0.09109260886907578,-0.07370086014270782,0.03374185413122177,0.04920976608991623,-0.03370063379406929,0.04141809046268463,0.07162844389677048,0.015876686200499535,-0.09971780329942703,0.005283777602016926,-0.07342217117547989,-0.07062537223100662,-0.07086118310689926,-0.06122327595949173,-0.07628735154867172,0.06002217158675194,-0.0460471548140049,-0.0338912196457386,0.04890649393200874,-0.044824033975601196,0.06829899549484253,0.0825754925608635,0.08602754026651382,-0.05785125121474266,-0.053823426365852356,0.05410678684711456,0.08741853386163712,0.007771098054945469,-0.07897855341434479,-0.008905069902539253,-0.07081135362386703,0.0069617233239114285,0.03477455675601959,-0.03820784017443657,-0.053853198885917664,0.023543450981378555,-0.09561724215745926,-0.01771494559943676,0.039498455822467804,-0.0674247071146965,0.04467455670237541,-0.08731894940137863,-0.013187403790652752,0.024156587198376656,0.059932008385658264,0.057681385427713394,0.058853160589933395,0.059746187180280685,0.028777534142136574,0.09741488844156265,-0.051548928022384644,0.01572306826710701,-0.023277541622519493,-0.04683738946914673,-0.01637359894812107,0.0007799207232892513,-0.019321417436003685,-0.010314966551959515,-0.021759672090411186,-0.06345018744468689,-0.07307685911655426,0.08931175619363785,-0.09123160690069199,-0.09261147677898407,-0.010833073407411575,0.023217108100652695,0.07603896409273148,0.016581229865550995,-0.08516554534435272,-0.036946870386600494,-0.08749397844076157,-0.09425181895494461,0.07887843251228333,0.06876356154680252,-0.0343981496989727,0.0393679216504097,-0.06314081698656082,-0.032126959413290024,-0.07970497012138367,-0.0694575160741806,0.08917790651321411,0.09659618139266968,0.013523668050765991,-0.006605698727071285,-0.07952863723039627,0.046168919652700424,0.032514650374650955,-0.05866004526615143,0.09749875962734222,-0.0682174414396286,-0.038005221635103226,-0.01218559592962265,0.033101387321949005,-0.018268652260303497,0.046386681497097015,-0.09526181221008301,-0.09691578149795532,-0.06956925988197327,-0.05430368706583977,0.07331600040197372,0.030498294159770012,-0.002115323208272457,0.051629405468702316,-0.05111784115433693,-0.08601278811693192,-0.07010213285684586,0.010305197909474373,-0.054852332919836044,-0.0821220874786377,0.04960528016090393,0.02887214906513691,0.04746444523334503,-0.0524350143969059,0.0946245789527893,0.07798147946596146,-0.06344278156757355,-0.06858937442302704,-0.029549172148108482,0.05495331063866615,0.05163732171058655,-0.04543944075703621,-0.03305338695645332,-0.036852944642305374,-0.00588246900588274,0.004464177414774895,-0.03508491814136505,-0.07144847512245178,0.06055176630616188,0.00038157610106281936,0.0704936608672142,0.05123310163617134,-0.020261183381080627,0.055955883115530014,0.040559444576501846,0.09989425539970398,0.09740211069583893,0.08292869478464127,0.07906024158000946,-0.06084183603525162,-0.014703532680869102,-0.06118028610944748,-0.00855273101478815,-0.042719002813100815,-0.01011686772108078,-0.01982560008764267,0.006927822716534138,0.09046764671802521,0.061089999973773956,-0.02035180851817131,-0.005094001069664955,-0.04042484238743782,-0.0042840116657316685,0.01750985160470009,-0.08591556549072266,-0.04907813295722008,-0.025183817371726036,-0.055342938750982285,0.06925763189792633,-0.057744938880205154,0.09971823543310165,0.03671867027878761,0.006075229961425066,-0.06732235848903656,0.020144689828157425,-0.05624600127339363,0.05049315467476845,-0.07356918603181839,-0.019906850531697273,0.03732340782880783,0.0434715673327446,-0.019432295113801956,0.07125002145767212,-0.010855279862880707,-0.08623073995113373,0.05435723438858986,0.0030245936941355467,-0.004933925811201334,-0.08623651415109634,-0.09047619998455048,0.0767178162932396,-0.01219173613935709,-0.0963071659207344,0.05386438965797424,0.06240631639957428,-0.008287528529763222,0.06750793755054474,-0.03630378469824791,-0.0749192088842392,0.01713227853178978,-0.0254950113594532,-0.03009127266705036,0.017738843336701393,0.029158880934119225,-0.06209850683808327,0.06956058740615845,0.0705198124051094,0.08443654328584671,0.06430669128894806,0.06744419038295746,-0.01470351405441761,0.07739375531673431,-0.08089716732501984,-0.060014136135578156,-0.06007934734225273,-0.020562244579195976,-6.227537232916802e-05,0.059768930077552795,0.04493308812379837,0.08027216047048569,-0.0685172975063324,0.015929577872157097,-0.07260162383317947,-0.07308822125196457,0.030164973810315132,-0.006691778544336557,-0.01385422982275486,0.09156779199838638,-0.061395496129989624,0.07315332442522049,0.03536556288599968,0.04482713341712952,0.0870724692940712,0.09666784852743149,-0.08902142196893692,0.08691323548555374,-0.061936549842357635,-0.023119822144508362,0.028549836948513985,0.06524167209863663,-0.04948325827717781,0.06928090751171112,-0.05480540543794632,-0.06463263183832169,-0.03542248159646988,0.022729378193616867,-0.04020059481263161,0.09254323691129684,-0.08423201739788055,-0.046566154807806015,-0.010093300603330135,0.05333913117647171,0.026295911520719528,0.035313379019498825,0.0060180132277309895,-0.036334048956632614,0.04224192351102829,-0.055309098213911057,-0.038538508117198944,0.049526989459991455,-0.09731952846050262,0.04548400267958641,-0.03621122986078262,0.05285809934139252,-0.06815076619386673,0.08716898411512375,0.07636294513940811,0.010003088042140007,0.020884273573756218,0.01793481409549713,0.0237271711230278,0.07212923467159271,0.08003561198711395,-0.04855562001466751,-0.05332151800394058,0.019919415935873985,0.04922565072774887,0.008590412326157093,0.03620825707912445,-0.0720706656575203,-0.05338292941451073,-0.018490208312869072,-0.023761719465255737,-0.03809548541903496,0.058906976133584976,0.03912106156349182,-0.006032869219779968,-0.08261561393737793,-0.06295511871576309,-0.057926420122385025,-0.07425913959741592,0.047542065382003784,-0.014907948672771454,0.06821730732917786,-0.013381607830524445,-0.035151202231645584,-0.09702300280332565,0.061341024935245514,0.0032702672760933638,0.025026869028806686,-0.06089886277914047,-0.019277362152934074,-0.06727853417396545,-0.007417610846459866,-0.057659730315208435,0.0704021006822586,0.025170011445879936,0.01611727476119995,0.03290703147649765,0.0775538831949234,-0.04387839883565903,0.06872355192899704,0.055453017354011536,-0.08482324331998825,0.025103354826569557,0.017413180321455002,-0.04074729233980179,0.07397176325321198,-0.06631787121295929,0.047600243240594864,0.06391320377588272,-0.0816395953297615,0.08527860045433044,-0.04192586988210678,-0.050652433186769485,0.07754087448120117,0.09629549831151962,0.07901722192764282,0.061196401715278625,-0.035980142652988434,-0.06492194533348083,0.018491586670279503,0.007224511355161667,-0.029397720471024513,-0.030448706820607185,0.021702082827687263,-0.07856770604848862,-0.031081197783350945,0.0535229854285717,0.06862840801477432,-0.04079637676477432,0.09875988960266113,-0.058242131024599075,-0.008015623316168785,-0.06475160270929337,-0.06691550463438034,0.035205382853746414,-0.09281255304813385,-0.06952065229415894,0.08873511850833893,0.09048694372177124,-0.00373887293972075,-0.003149171359837055,0.030668310821056366,0.09321777522563934,0.06927187740802765,0.04992874339222908,0.08454156666994095,-0.0686008632183075,-0.07503371685743332,-0.03265908360481262,-0.05318877473473549,-0.012959398329257965,0.09584394097328186,-0.09367300570011139,0.060828499495983124,0.08232514560222626,0.09451888501644135,-0.005872658453881741,0.011970244348049164,0.015651511028409004,0.015211844816803932,0.0418379046022892,-0.08362213522195816,-0.04156779497861862,0.07513263821601868,-0.05231950804591179,0.08843059092760086,0.016921469941735268,0.038868166506290436,-0.0983315035700798,-0.051952607929706573,0.022365327924489975,0.06995034962892532,-0.04189791902899742,0.08455704152584076,-0.05377187952399254,-0.045912496745586395,0.02054448612034321,0.08271822333335876,0.08404239267110825,0.020219095051288605,0.08318957686424255,-0.007258365862071514,0.04568225145339966,-0.0988909974694252,-0.06726966053247452,0.0603528767824173,-0.03200932592153549,-0.062215931713581085,0.08858948200941086,-0.05629352107644081,0.0320950448513031,-0.05971284210681915,0.027176307514309883,-0.07109712809324265,-0.010219462215900421,0.04408814013004303,-0.01382440235465765,0.05101616308093071,-0.03522995486855507,0.07062450796365738,-0.06224428862333298,0.0867295190691948,0.0724383145570755,0.015511048957705498,-0.013370757922530174,0.0958484560251236,0.012772987596690655,-0.08607955276966095,-0.034319113940000534,-0.08598749339580536,-0.024996289983391762,-0.0703745186328888,-0.035737328231334686,0.06501470506191254,-0.08993103355169296,0.05359162390232086,-0.06670153886079788,0.07667183130979538,0.060829196125268936,-0.06781036406755447,-0.07552309334278107,-0.031701747328042984,-0.09251110255718231,0.03544946387410164,-0.023496245965361595,0.04225018993020058,-0.06804531812667847,0.01594044454395771,0.04626956954598427,-0.058799970895051956,-0.011620271019637585,-0.0547548346221447,0.0012779328972101212,0.05041953921318054,-0.04166535288095474,-0.0034100855700671673,0.06082012504339218,0.042885225266218185,0.018067486584186554,-0.08297328650951385,-0.0031233360059559345,-0.049920015037059784,-0.08144797384738922,-0.08656325191259384,-0.023145336657762527,-0.04341239109635353,-0.04333832859992981,0.040371477603912354,0.002440499374642968,-0.0055236187763512135,-0.007615884765982628,-0.08512610197067261,-0.0841578021645546,0.039353132247924805,-0.06803406774997711,-0.032492559403181076,-0.014382771216332912,-0.00394591037184,0.04709944874048233,-0.02484365552663803,0.008970688097178936,-0.07499487698078156,0.01849898137152195,0.08607455343008041,-0.07389349490404129,0.10329890251159668,-0.06649775803089142,-0.04848427698016167,-0.08268120884895325,0.06582867354154587,0.007416907232254744,-0.04338979348540306,0.07405943423509598,0.0002256279403809458,0.09452753514051437,0.01299578882753849,0.10298837721347809,-0.06422796845436096,-0.06961569935083389,0.09165200591087341,-0.048570793122053146,0.040324416011571884,-0.03719779849052429,0.09058912843465805,0.013392927125096321,0.06252708286046982,0.029097944498062134,-0.06317508965730667,0.05619174242019653,-0.060607947409152985,0.07393161207437515,0.03597895801067352,-0.04122784733772278,-0.012157394550740719,0.0397421196103096,0.013750402256846428,0.1076926589012146,-0.007484103087335825,-0.006780564785003662,0.04722058027982712,-0.01613999903202057,0.0004537764471024275,0.1000686064362526,0.053488992154598236,-0.03886188566684723,0.09408069401979446,0.09040074795484543,0.0368078276515007,-0.0007893361034803092,0.052976593375205994,0.0038707510102540255,-0.04829523712396622,-0.014435767196118832,-0.005711358040571213,-0.01715514063835144,-0.05866911634802818,-0.0849466547369957,0.014604859985411167,0.07337939739227295,0.0766158178448677,0.07140425592660904,-0.034407392144203186,0.026870349422097206,-0.04678468406200409,-0.09363679587841034,-0.02656388282775879,-0.011222862638533115,0.056593962013721466,-0.03327958285808563,0.016256486997008324,0.11724016815423965,0.10240592807531357,0.04587716981768608,0.0005667650257237256,-0.03477858379483223,0.03515227511525154,0.09744006395339966,0.07851582020521164,-0.07436388731002808,0.021971410140395164,-0.06738868355751038,0.015906862914562225,0.004310897551476955,-0.09504837542772293,-0.08970627933740616,-0.09036968648433685,-0.07188013941049576,0.05132834613323212,0.07227504253387451,-0.038682594895362854,-0.007858050055801868,-0.04604633152484894,0.01790584810078144,0.07533939927816391,0.05441376566886902,-0.051384516060352325,-0.02612832747399807,-0.0018267066916450858,-0.03491108864545822,0.03262804448604584,0.047665514051914215,-0.04049669951200485,0.10235121101140976,0.06374167650938034,-0.07957201451063156,-0.05627978593111038,-0.039408158510923386,-0.007533352822065353,-0.05970645695924759,0.07004766911268234,-0.02124524861574173,0.08377587795257568,0.002973393304273486,-0.09101321548223495,0.0257020965218544,-0.004267983604222536,0.061118800193071365,0.07889039069414139,-0.06853644549846649,0.09788847714662552,-0.0532962866127491,0.08807297050952911,0.021854860708117485,0.014689258299767971,-0.01037035696208477,0.11287378519773483,0.03172117844223976,-0.06714630872011185,0.022878162562847137,0.03168245404958725,0.04730547219514847,0.05092400684952736,0.08829342573881149,0.005844526458531618,-0.09601902961730957,-0.056110043078660965,-0.033095043152570724,0.0047554015181958675,-0.06539536267518997,-0.04616391286253929,0.021755335852503777,-0.008129014633595943,0.09915830940008163,0.003353018779307604,0.05566474050283432,-0.033628251403570175,0.03421800956130028,-0.0288766510784626,0.050545427948236465,-0.028331849724054337,0.0025830797385424376,0.009894676506519318,0.04445410892367363,0.024605683982372284,0.01995030790567398,-0.0055062491446733475,-0.08208177238702774,-0.0761527419090271,-0.017043787986040115,-0.06214052438735962,-0.03904745355248451,0.0460372194647789,-0.07739844173192978,-0.047866422683000565,-0.0038958988152444363,-0.058457423001527786,0.07268108427524567,-0.02736947126686573,0.09005508571863174,0.07442633807659149,0.08677899837493896,-0.06073243170976639,-0.007916796952486038,0.014476110227406025,-0.054351214319467545,-0.041494183242321014,-0.06689590960741043,0.002447348553687334,-0.001975440885871649,-0.059579409658908844,0.08028888702392578,-0.014672530815005302,0.010012641549110413,-0.03466207534074783,0.06667033582925797,-0.05283169448375702,-0.0044122785329818726,0.07582885026931763,0.07676704972982407,0.05937723442912102,0.033688779920339584,0.03956100344657898,0.04175528511404991,0.056022223085165024,-0.07906580716371536,-0.08461438864469528,0.055115144699811935,0.0028084793593734503,-0.05070804804563522,-0.006308842916041613,-0.050844766199588776,-0.0837019756436348,0.015262985602021217,-0.001308336271904409,0.06640134006738663,0.08226101845502853,-0.08548381924629211,0.05348563566803932,-0.07672268152236938,-0.04666195437312126,-0.02193881757557392,0.07351232320070267,-0.08255315572023392,0.0008275130530819297,-0.024855274707078934,-0.10500972718000412,0.09934902936220169,-0.00912041962146759,0.09702400863170624,-0.06595209240913391,0.09005608409643173,0.08643791824579239,0.05891711264848709,-0.07782407104969025,-0.0686466246843338,0.01938387006521225,-0.028086107224225998,0.00470901420339942,0.0523342490196228,-0.03907891735434532,0.08774636685848236,0.03564922884106636,0.08953583240509033,0.04220316931605339,-0.032254863530397415,0.08155365288257599,0.042402852326631546,0.03215165436267853,-0.020342642441391945,0.07187043130397797,0.00010276005923515186,-0.06252339482307434,0.057005830109119415,-0.0648128017783165,0.03812134265899658,0.07008219510316849,-0.06575949490070343,-0.09194977581501007,0.01262081228196621,0.06487242132425308,-0.08037188649177551,0.04702793434262276,0.08100205659866333,0.03920714184641838,-0.09534304589033127,-0.09372753649950027,-0.08514773100614548,0.053179726004600525,-0.06547550112009048,-0.005536613520234823,0.0033482653088867664,0.03949175029993057,-0.03731781244277954,-0.023835504427552223,0.0624428391456604,0.08173788338899612,0.013733834959566593,0.0031157853081822395,0.04769408702850342,-0.012562346644699574,-0.013687768019735813,-0.05967216193675995,0.028283029794692993,-0.024315647780895233,0.025944534689188004,-0.04283380135893822,-0.0051375082693994045,0.013836205005645752,0.09702803939580917,0.0310848169028759,-0.049807991832494736,-0.06051285192370415,-0.08338108658790588,-0.014979875646531582,-0.026038749143481255,-0.07546192407608032,-0.010186295956373215,-0.012502636760473251,0.0431610569357872,0.06429889798164368,0.0541163794696331,-0.04256574809551239,0.013049048371613026,-0.00324311968870461,0.05042251572012901,0.04407757893204689,0.06984271854162216,0.0508047416806221,-0.05909538269042969,-0.014249815605580807,-0.07602281123399734,0.05502776429057121,0.09200654923915863,-0.05076291412115097,0.02405618131160736,0.06981635838747025,-0.08536582440137863,0.011143258772790432,0.020446496084332466,-0.01996864378452301,-0.08661029487848282,0.036616597324609756,0.009574045427143574,-0.08807341754436493,0.07474019378423691,-0.015340345911681652,-0.07468274235725403,0.0057394676841795444,-0.0034565110690891743,0.06899480521678925,-0.06568175554275513,-0.04949787259101868,-0.056660186499357224,-0.06904716789722443,0.026917919516563416,0.08649642765522003,-0.09543091058731079,-0.057772763073444366,0.09884227812290192,-0.015457849018275738,-0.06257545948028564,0.08809171617031097,-0.039468515664339066,-0.09335847944021225,0.08453606814146042,-0.08862768113613129,-0.09916398674249649,0.0782555341720581,0.04959354177117348,-0.06679147481918335,0.03997724503278732,-0.09038911014795303,-0.05750752612948418,-0.081504225730896,0.09062895178794861,-0.03021286055445671,-0.04605536535382271,0.020361006259918213,0.018564481288194656,0.044240131974220276,0.07227352261543274,0.0957002341747284,-0.06907379627227783,-0.061769407242536545,-0.0847129374742508,-0.0014122413704171777,-0.08952151238918304,-0.010527588427066803,-0.086939238011837,-0.056197553873062134,0.018622156232595444,-0.02181108668446541,-0.09710372984409332,0.09292703121900558,-0.05428796634078026,0.01918703317642212,0.050405435264110565,-0.0721215158700943,-3.40274823429354e-06,-0.08104308694601059,0.012670825235545635,-0.09885960072278976,0.01059489231556654,0.056954819709062576,0.029742317274212837,0.03235787898302078,-0.07708780467510223,0.05277827009558678,-0.02947312593460083,0.05782245472073555,-0.011644293554127216,0.09195389598608017,0.02009526826441288,0.061452701687812805,0.036270614713430405,0.008483943529427052,-0.034334611147642136,0.033714715391397476,-0.002412863541394472,-0.08334527909755707,-0.04527245834469795,-0.058761753141880035,0.08388694375753403,0.0375039279460907,-0.021238621324300766,-0.0483979731798172,0.01574251800775528,-0.061879996210336685,-0.09856491535902023,0.023302987217903137,-0.04078104719519615,-0.09281082451343536,0.08634490519762039,0.027991538867354393,0.04571498930454254,0.0351240448653698,0.008794535882771015,0.018217137083411217,-0.0730709508061409,0.08913680166006088,-0.04941796511411667,-0.058112192898988724,0.056264907121658325,-0.08144649863243103,0.0798637792468071,-0.04202811419963837,0.06102433800697327,0.032006870955228806,-0.05063264071941376,-0.09150265902280807,-0.007482645567506552,0.030052512884140015,-0.043828289955854416,-0.08161144703626633,-0.013622218742966652,0.03797607868909836,0.09221810102462769,-0.05752551928162575,0.04744693636894226,-0.04011411964893341,-0.03949478268623352,0.08903440088033676,0.014563142322003841,-0.008220168761909008,-0.037045758217573166,0.025540031492710114,0.04192037135362625,-0.08676616847515106,0.06954976171255112,-0.050071798264980316,-0.082440085709095,-0.07576607912778854,-0.06750956922769547,0.007635164074599743,-0.020118921995162964,0.016571426764130592,0.04828204587101936,0.004204540979117155,0.06805643439292908,0.06668363511562347,0.018882572650909424,0.015737561509013176,-0.04396834224462509,-0.002242189832031727,-0.05669303610920906,0.06832394003868103,-0.04605012759566307,0.02836761809885502,-0.07945965230464935,-0.021855758503079414,0.004132943693548441,0.08112231642007828,0.06149937957525253,-0.030256163328886032,0.04991412162780762,0.06745146960020065,0.011108352802693844,-0.08597150444984436,0.0393487848341465,-0.03847823292016983,0.020764147862792015,-0.065916046500206,-0.0628259927034378,-0.0236777663230896,-0.005552651360630989,-0.08963137865066528,-0.011220700107514858,0.09625140577554703,-0.04401547089219093,0.05045803263783455,-0.062101252377033234,0.07633501291275024,-0.029257867485284805,-0.08786327391862869,-0.031141269952058792,0.06508743762969971,0.09825187921524048,0.09844578802585602,-0.03658539801836014,-0.01718730293214321,0.06159781664609909,0.004581507761031389,0.028935957700014114,0.0015190112171694636,0.09524679183959961,-0.04287590831518173,0.0648794174194336,0.05583963543176651,0.005922315642237663,-0.028707413002848625,-0.03581024333834648,0.04702259227633476,-0.09069550782442093,0.0833982303738594,-0.0719238743185997,-0.0788654237985611,-0.03385753557085991,-0.07831992954015732,-0.03128911182284355,0.09733042865991592,-0.0508652925491333,0.03469882532954216,0.07806246727705002,-0.07878846675157547,-0.00441009784117341,-0.03433019295334816,-0.028668589890003204,0.003554796101525426,0.04445844143629074,-0.03616413101553917,-0.05075700953602791,-0.03945281729102135,-0.09344705194234848,-0.0805487409234047,0.0057711913250386715,-0.05864660069346428,-0.06168778985738754,0.051162995398044586,0.007875210605561733,0.03558895364403725,0.09612897783517838,-0.08713647723197937,0.014629825949668884,-0.020390264689922333,0.019526004791259766,0.0005427160067483783,0.048838719725608826,0.017392339184880257,-0.022562125697731972,-0.009503304027020931,0.07285071909427643,-0.09724057465791702,0.05247063562273979,-0.07896121591329575,0.06849783658981323,-0.08236364275217056,0.05282525345683098,-0.055423714220523834,0.027642231434583664,0.06168780475854874,0.0874597579240799,-0.062270037829875946,0.07205758988857269,-0.07609765231609344,-0.03835177421569824,-0.07660427689552307,0.0020606527104973793,-0.09867551922798157,-0.08012576401233673,-0.07469121366739273,-0.03541716933250427,-0.03708261623978615,0.06127754971385002,-0.09381234645843506,-0.02368534728884697,-0.0746140256524086,0.015561064705252647,-0.028125092387199402,-0.07868490368127823,0.010307052172720432,-0.04504360258579254,-0.05208522081375122,0.02897992543876171,-0.08796121925115585,-0.07225573062896729,-0.06767205893993378,0.03787384182214737,0.06387665122747421,-0.03393206000328064,-0.03538941219449043,-0.01552077941596508,0.024205323308706284,0.02105170115828514,-0.0654873251914978,0.06635569036006927,0.017100553959608078,0.0543268620967865,-0.03499213606119156,0.08561674505472183,-0.02363639511168003,0.07271747291088104,-0.06322703510522842,0.012607836164534092,0.02118520997464657,-0.009414964355528355,0.01491010282188654,0.06358814984560013,-0.01932293176651001,0.09471768140792847,0.09681601077318192,0.0869547426700592,0.06273943930864334,-0.022423019632697105,-0.001362497336231172,-0.010599993169307709,0.09672833979129791,0.054354313760995865,-0.0421663299202919,-0.04231782257556915,0.015180886723101139,0.025123951956629753,0.028504563495516777,0.028828030452132225,-0.09483807533979416,-0.003570680506527424,0.04263994097709656,0.02185123600065708,-0.037412673234939575,-0.08520936220884323,0.0014882521936669946,0.09705047309398651,-0.08219647407531738,-0.0982961654663086,0.0997719094157219,-0.03630547598004341,-0.09194276481866837,0.028614476323127747,0.086516372859478,-0.06300568580627441,-0.10430007427930832,-0.001275302260182798,-0.000784731179010123,-0.05469713732600212,-0.039466969668865204,-0.034084029495716095,0.06423959881067276,-0.08191182464361191,0.05409606546163559,-0.0152010228484869,-0.057693492621183395,0.07132312655448914,0.00680125504732132,-0.0059639583341777325,-0.02795412950217724,0.07726580649614334,-0.06381040066480637,0.0666983351111412,-0.03149060904979706,-0.038687583059072495,0.05153532698750496,-0.10396908968687057,-0.06415671110153198,0.09675940871238708,0.1042790338397026,0.005080904345959425,-0.0023078469093889,-0.01175364013761282,-0.03110608458518982,0.008881911635398865,-0.09194556623697281,-0.033286795020103455,0.05770006775856018,-0.022214358672499657,-0.06855816394090652,0.10475344210863113,0.019472269341349602,0.07918358594179153,0.09643136709928513,-0.020426031202077866,-0.03961769863963127,0.05215490981936455,-0.09175682812929153,-0.09694555401802063,0.023831496015191078,0.03334560617804527,-0.06002890318632126,-0.035651374608278275,0.014996369369328022,0.07429178059101105,-0.02289106696844101,0.0994729995727539,-0.07844153791666031,-0.03236778825521469,-0.09267941862344742,0.06077130138874054,-0.12161123752593994,-0.008296996355056763,-0.08336229622364044,-0.10362469404935837,-0.011574159376323223,0.09709474444389343,-0.04740262031555176,-0.053716693073511124,-0.08087026327848434,0.035594869405031204,-0.007643161807209253,0.04001931473612785,0.07512333989143372,0.05453076958656311,0.015717482194304466,0.010830125771462917,-0.07406474649906158,0.041277725249528885,-0.007580334786325693,0.010548073798418045,0.08298885077238083,0.01900123432278633,-0.04552823305130005,-0.07882130891084671,0.04884561523795128,-0.07470033317804337,0.08125530928373337,-0.03067704290151596,0.002614308148622513,0.08650774508714676,0.02667207270860672,0.08856062591075897,-0.0419498011469841,0.07210741192102432,-0.12861540913581848,-0.016513852402567863,0.09564577788114548,0.00935419462621212,0.028006529435515404,0.04978722333908081,-0.013038733042776585,-0.08130883425474167,0.10958872735500336,-0.01283918134868145,0.05468647554516792,-0.036913059651851654,-0.013616906479001045,0.02279776521027088,-0.06440771371126175,0.05966318026185036,-0.09667115658521652,-0.059170689433813095,0.12191469967365265,-0.022633487358689308,0.03824057802557945,-0.06766250729560852,0.026243697851896286,0.0688263475894928,0.053128547966480255,-0.038036346435546875,0.004562130197882652,0.06762877851724625,-0.09315431863069534,-0.07668384909629822,0.1272168755531311,-0.022149868309497833,-0.09141649305820465,-0.055860571563243866,0.03995770588517189,0.016571253538131714,0.0046353330835700035,-0.15258778631687164,0.08318737894296646,-0.014808100648224354,-0.08817524462938309,-0.011940627358853817,-0.017393821850419044,0.018567252904176712,-0.127828910946846,-0.04064523056149483,-0.08864860236644745,-0.006709740497171879,0.036085259169340134,-0.08046498894691467,-0.07390941679477692,0.13043513894081116,0.1226758137345314,0.041304055601358414,-0.006148266140371561,0.052997324615716934,-0.033227961510419846,-0.02246508002281189,-0.0047959452494978905,-0.016176963225007057,-0.12184245884418488,0.06691720336675644,-0.10393157601356506,0.08560605347156525,0.04758313298225403,-0.007818864658474922,0.03614000231027603,0.14669139683246613,0.003777723526582122,-0.1289077252149582,0.0621504932641983,-0.05679818615317345,0.09499288350343704,0.10969508439302444,0.018549052998423576,-0.0077038598246872425,0.08189556747674942,0.06374581158161163,-0.057915203273296356,0.011330568231642246,0.10511372983455658,-0.07579535990953445,-0.10075385123491287,0.07372268289327621,0.012811636552214622,0.02284221351146698,0.09949863702058792,0.034667156636714935,-0.02960711345076561,0.049555275589227676,-0.02901299111545086,-0.07259580492973328,-0.007956353016197681,0.09738914668560028,-0.017449576407670975,-0.02568497136235237,-0.06658631563186646,-0.011436544358730316,0.04714353010058403,-0.050363145768642426,-0.03623524680733681,0.004193129017949104,0.10461250692605972,-0.014274063520133495,-0.0559966117143631,0.11360877007246017,0.03443115949630737,0.009815809316933155,0.007358281407505274,-0.08151178061962128,-0.09601987898349762,0.07635608315467834,-0.058733467012643814,-0.01627805456519127,-0.12896232306957245,-0.08418633043766022,0.023778047412633896,-0.007144629023969173,-0.020519627258181572,-0.02350531332194805,0.06943970173597336,-0.00932371523231268,-0.001103466609492898,0.08119139075279236,0.09514182060956955,0.08695915341377258,-0.01626131869852543,0.04604874551296234,0.10613957792520523,0.024216465651988983,0.012077314779162407,0.09705033898353577,-0.07520254701375961,0.11335743963718414,-0.04341883212327957,-0.019458986818790436,0.13102906942367554,-0.0048988512717187405,0.13337606191635132,-0.03343501687049866,0.09560032933950424,0.0662611648440361,-0.02726902812719345,-0.03246304765343666,-0.10223886370658875,0.06550467014312744,-0.10989387333393097,0.0952330231666565,0.058372173458337784,-0.05635331571102142,-0.036704473197460175,0.1121596172451973,-0.02245672233402729,0.09008992463350296,0.004796211142092943,0.08202145993709564,0.037515830248594284,0.06601236015558243,0.09208305180072784,0.01825241558253765,-0.023961149156093597,0.03586895018815994,-0.022686028853058815,0.07327461987733841,0.00468086963519454,-0.021181197836995125,0.04198182746767998,0.12502413988113403,0.10982207953929901,-0.07194911688566208,-0.028735026717185974,0.04854864999651909,0.021385908126831055,0.018330350518226624,0.04978641867637634,0.07260224968194962,0.04415815323591232,-0.07245789468288422,-0.05948912352323532,-0.047422751784324646,-0.014408157207071781,0.009302605874836445,-0.03891707956790924,0.05665646865963936,-0.07155312597751617,-0.035324469208717346,-0.05586908012628555,-0.04717729613184929,0.08820991963148117,-0.05872721970081329,0.09177059680223465,0.011840068735182285,0.08663094788789749,0.10807470232248306,-0.03409596532583237,-0.08988668769598007,-0.09622897952795029,-0.07073179632425308,0.039984285831451416,0.09327656030654907,-0.06628789007663727,-0.01774999313056469,-0.008313779719173908,0.05179130285978317,-0.054983507841825485,-0.03680848702788353,0.07337211817502975,-0.055636871606111526,0.010084099136292934,-0.09751816838979721,0.08587856590747833,0.023273330181837082,-0.04534908011555672,-0.06700807064771652,0.08776752650737762,-5.497668098541908e-05,-0.020976366475224495,0.08352134376764297,0.056258950382471085,0.0181528739631176,0.012780376709997654,-0.07045993208885193,-0.07951518148183823,0.04096931591629982,0.04600941762328148,-0.05842122063040733,-0.06265971064567566,0.09364239126443863,-0.07055329531431198,-0.02707543410360813,-0.011902525089681149,0.04009551554918289,-0.05209818482398987,-0.0653296411037445,0.0794680118560791,0.07239027321338654,0.01749970205128193,0.009328899905085564,0.08406723290681839,0.07999944686889648,-0.029682934284210205,0.046409498900175095,0.01076860073953867,0.056410498917102814,-0.09851457178592682,-0.09473010897636414,0.007901889272034168,-0.0459970161318779,0.024534668773412704,-0.0883612111210823,-0.003500531194731593,-0.05080327391624451,0.03282005712389946,0.08448605984449387,0.024825341999530792,-0.023561641573905945,-0.0391843356192112,-0.0016504771774634719,-0.08567220717668533,0.07749547809362411,-0.05397599935531616,0.028393153101205826,0.035236384719610214,-0.05178416147828102,0.09318108856678009,0.0368577316403389,0.048844605684280396,0.06458228081464767,0.04596054553985596,0.038021035492420197,-0.05305797979235649,0.08506724238395691,0.0319257415831089,-0.018477892503142357,0.04565534368157387,0.06222273036837578,0.03225904703140259,-0.09184591472148895,0.07316148281097412,0.022742897272109985,0.0681542307138443,-0.08317883312702179,-0.04039284586906433,0.06815389543771744,-0.008438289165496826,-0.02395765483379364,0.08728320151567459,0.042162757366895676,-0.0472460612654686,-0.05170721188187599,-0.024902181699872017,-0.024115080013871193,-0.02937152422964573,-0.01431350689381361,-0.044571466743946075,0.026179436594247818,0.02947169356048107,0.0025116729084402323,-0.012128190137445927,0.016470568254590034,-0.05255979672074318,0.09286653250455856,0.07425431162118912,0.0963984951376915,-0.03029499389231205,0.09642212092876434,-0.06638775765895844,-0.059436675161123276,-0.07706962525844574,0.056834492832422256,-0.09491565078496933,-0.007560546509921551,0.08623412251472473,0.08789651095867157,-0.08312597125768661,-0.0762590542435646,0.035905588418245316,-0.022479401901364326,-0.04741343483328819,-0.08647635579109192,-0.013117073103785515,0.023397471755743027,-0.03249194473028183,-0.028946086764335632,-0.09421569854021072,0.04110812023282051,-0.05813637375831604,0.03276678919792175,0.09338073432445526,0.09686766564846039,-0.08048482239246368,-0.006325282156467438,-0.0243422482162714,0.09989644587039948,-0.04151936247944832,0.06287934631109238,0.00027661974309012294,0.009705464355647564,0.006739584729075432,0.06985168904066086,0.039683785289525986,0.08412835747003555,-0.06747858226299286,-0.013313708826899529,-0.002091106027364731,-0.07686358690261841,0.04107372462749481,-0.052070628851652145,-0.03905359283089638,0.04133705049753189,-0.01928674429655075,-0.08991657942533493,-0.0011112431529909372,-0.07737122476100922,-0.08055315911769867,-0.08850248903036118,-0.017364991828799248,-0.00726301921531558,0.08769166469573975,-0.00029875061591155827,-0.07772164046764374,-0.0415009967982769,-0.06917300075292587,-0.09814640134572983,-0.002906791865825653,0.04020411893725395,0.051705971360206604,0.022605935111641884,-0.050448790192604065,0.08156108856201172,0.08477737009525299,-0.02403630129992962,0.01940223015844822,0.018703803420066833,0.010882304981350899,-0.024174029007554054,0.05411706492304802,-0.00832319911569357,0.09976564347743988,-0.06043250486254692,0.019853422418236732,0.08623746037483215,-0.09968067705631256,-0.07688622921705246,0.09058419615030289,0.0036963550373911858,0.09277413785457611,0.08226705342531204,0.0897696241736412,-0.08917880058288574,-0.028599746525287628,0.021119575947523117,0.049956392496824265,0.0325278602540493,-0.043191928416490555,0.09034166485071182,-0.0676293820142746,-0.08979517221450806,-0.009829859249293804,0.025659482926130295,0.0848664864897728,0.08108484745025635,0.007986370474100113,0.0989600345492363,0.06520407646894455,0.058153945952653885,-0.07316404581069946,0.04342975839972496,0.010957607068121433,-0.05029204115271568,-0.06898526847362518,0.04765425622463226,0.041204337030649185,-0.07475180923938751,-0.050017017871141434,0.009497187100350857,0.06607957929372787,0.06882476061582565,0.09543795138597488,0.029830122366547585,0.0020144626032561064,0.06833016127347946,-0.08618124574422836,-0.06293325871229172,0.0849190279841423,0.0027080336585640907,0.05000224709510803,0.03604106977581978,-0.03703830763697624,0.005785706918686628,0.049979329109191895,-0.023448029533028603,0.041148170828819275,0.027384651824831963,0.07618105411529541,0.0973418802022934,0.014589226804673672,-0.08662925660610199,0.08605591207742691,0.09715771675109863,-0.01975255087018013,-0.05501783639192581,0.060921721160411835,-0.05837807431817055,-0.02437114529311657,0.09348133951425552,0.07822352647781372,0.057624731212854385,-0.05478307604789734,-0.06477900594472885,0.011908461339771748,0.008614236488938332,0.01023421622812748,-0.08132968842983246,-0.07058980315923691,0.05048858001828194,-0.07550113648176193,-0.0285759549587965,0.08888942003250122,-0.08042144030332565,-0.02963702753186226,0.05079730972647667,-0.0770956501364708,-0.060034871101379395,-0.05102209746837616,-0.01460398081690073,0.02726092003285885,-0.004812230356037617,-0.041252680122852325,0.03550935164093971,0.0696837455034256,-0.016149837523698807,0.038385722786188126,-0.005254266317933798,0.06542346626520157,0.03918292000889778,-0.09137125313282013,-0.09185582399368286,0.024860283359885216,0.08265652507543564,-0.06643115729093552,0.08599594235420227,0.04586812108755112,0.020179374143481255,0.006468997802585363,0.010070756077766418,-0.08807151019573212,-0.017603041604161263,0.054676834493875504,0.030667772516608238,-0.006394517607986927,0.03310327231884003,-0.05712488666176796,0.0960974395275116,0.000646616390440613,-0.07095933705568314,-0.09808502346277237,0.06657185405492783,0.007641916628926992,-0.04747861251235008,-0.0015830874908715487,0.03097529336810112,0.07745333015918732,0.08854609727859497,0.08013617992401123,0.0550500750541687,-0.07728251814842224,-0.08559148013591766,-0.09024535864591599,-0.05247622728347778,-0.009554999880492687,0.05106547102332115,0.06653451919555664,-0.0645708367228508,0.029451753944158554,-0.0880097821354866,-0.037913694977760315,-0.03983777016401291,-0.004813170991837978,0.08222971111536026,0.045024510473012924,-0.054957419633865356,-0.08018436282873154,0.06461744755506516,-0.050937436521053314,-0.023997139185667038,0.05737055838108063,0.06127265840768814,-0.042204130440950394,-0.0653061717748642,0.01976586878299713,-0.002657360164448619,0.01771206595003605,-0.09641559422016144,0.04392189905047417,0.024818286299705505,0.0787096694111824,0.025641554966568947,0.014247696846723557,0.03125081583857536,0.057953398674726486,-0.09458716958761215,-0.06881781667470932,-0.002180956769734621,-0.0016249001491814852,-0.005668460391461849,0.05977081134915352,-0.08730864524841309,-0.04209553450345993,0.0718904510140419,-0.049265388399362564,-0.07966234534978867,0.06763172894716263,-0.040834520012140274,0.07244575768709183,-0.0343816839158535,-0.08830508589744568,0.06039857864379883,-0.03616369888186455,-0.004262251779437065,0.08738303929567337,-0.048725031316280365,-0.02578779123723507,-0.022702250629663467,-0.08935488760471344,-0.04107255861163139,-0.002752286149188876,-0.07622789591550827,-0.09303873032331467,-0.07569882273674011,-0.03163359686732292,0.02022787556052208,0.00879745464771986,0.07303787022829056,0.017027372494339943,-0.05077715590596199,-0.040824659168720245,-0.10380468517541885,0.04671791195869446,0.0011338304029777646,0.08145025372505188,-0.07282453030347824,-0.03048078529536724,0.0813082680106163,-0.05487534776329994,0.08104488253593445,-0.07385139167308807,0.02316117472946644,0.013002914376556873,-0.07372181862592697,0.07640329003334045,0.04078439623117447,0.056975606828927994,0.05701756849884987,0.0479389950633049,0.01701348088681698,-0.06830868870019913,-0.0737137570977211,0.11412269622087479,0.0032872124575078487,-0.04452035576105118,0.0019214204512536526,0.07602295279502869,-0.005317967850714922,-0.009528379887342453,0.11744974553585052,0.004991767928004265,0.0025612295139580965,-0.0352015420794487,0.07664403319358826,-0.03076801635324955,0.07111019641160965,-0.058561861515045166,0.018857425078749657,0.005331294145435095,0.01964879222214222,-0.04823152720928192,0.018892088904976845,0.08106246590614319,0.019413622096180916,0.05026569962501526,-0.00883597694337368,-0.05581267923116684,-0.052436910569667816,-0.06646603345870972,-0.10185476392507553,-0.06065674126148224,0.03285946324467659,-0.0013532001757994294,-0.059895340353250504,-0.02817828394472599,-0.12210539728403091,-0.0973387286067009,-0.03773488104343414,-0.03148261457681656,-0.055402740836143494,0.01518932729959488,0.0038823436480015516,0.004820935893803835,-0.023199308663606644,0.1037667766213417,0.0026857517659664154,-0.08528240770101547,0.01371094398200512,-0.13698792457580566,-0.07084735482931137,-0.04211026430130005,-0.04223246872425079,0.0956939086318016,0.08676404505968094,-0.10687451809644699,0.048638537526130676,-0.026724357157945633,-0.0822838544845581,0.02315882034599781,0.11669411510229111,-0.05509098246693611,-0.10120052844285965,0.0469103641808033,0.055969443172216415,0.02913603000342846,-0.06117700785398483,-0.12360469251871109,0.03254660591483116,0.02511448785662651,0.09248947352170944,-0.037970952689647675,0.01751626469194889,-0.04081909358501434,0.017617108300328255,-0.00758779002353549,0.09554355591535568,-0.01191850658506155,0.10217087715864182,-0.07456845045089722,-0.08783282339572906,-0.018915701657533646,-0.10335829854011536,0.0030289588030427694,-0.04076433926820755,0.02714337781071663,-0.18744505941867828,0.06429918110370636,-0.05441928282380104,0.05315323919057846,-0.012949260883033276,-0.08162177354097366,0.023678861558437347,-0.0006485562189482152,-0.09139977395534515,-0.10194346308708191,-0.18233650922775269,-0.0328853502869606,-0.07272621989250183,-0.03663262724876404,0.0010945620015263557,0.11230859160423279,-0.060973621904850006,0.0771745815873146,-0.0025183078832924366,-0.1849517971277237,0.018486442044377327,-0.02938402257859707,0.022505078464746475,0.01032707467675209,0.09416922926902771,-0.02290240302681923,-0.06993661820888519,-0.05032508820295334,0.07813045382499695,-0.0783863216638565,0.0188125129789114,-0.050317369401454926,0.03221074119210243,-0.013116717338562012,-0.04420175775885582,-0.18914729356765747,0.06731947511434555,0.025698507204651833,0.04300141707062721,-0.04415108636021614,-0.0003246960695832968,-0.03110535815358162,0.07013801485300064,0.06040113791823387,-0.06812414526939392,0.010378706268966198,-0.02540580928325653,0.014896703884005547,-0.07579358667135239,0.09371037781238556,-0.07574866712093353,-0.08510003238916397,-0.007036460097879171,0.08444371819496155,-0.12199157476425171,0.0910167545080185,-0.08594215661287308,0.09771594405174255,0.05087912082672119,-0.015463748946785927,-0.17895661294460297,-0.024415669962763786,-0.020921718329191208,0.02873738668859005,0.10753876715898514,-0.043251536786556244,0.10227611660957336,-0.034991368651390076,0.0010460326448082924,-0.12268741428852081,0.0835769847035408,-0.04672200605273247,0.037052225321531296,-0.08240904659032822,0.11575721949338913,-0.05636626109480858,-0.0038114250637590885,-0.01663745567202568,0.04990997910499573,-0.008165918290615082,0.05757489427924156,-0.13102997839450836,-0.03488053381443024,-0.06739111244678497,0.02752997726202011,-0.10900117456912994,0.08079209923744202,0.09570714086294174,-0.04429982602596283,-0.008552675135433674,-0.06097302585840225,-0.02716020867228508,0.011563788168132305,0.03692106530070305,-0.12104196101427078,0.08613332360982895,0.01507960818707943,-0.02207341603934765,0.06866488605737686,0.10253435373306274,-0.12779588997364044,-0.008225681260228157,0.013518769294023514,0.10315834730863571,0.02106279879808426,0.0030224360525608063,-0.03752177953720093,0.08459588140249252,-0.09911181032657623,-0.00861333403736353,-0.09633465856313705,0.06289440393447876,-0.06418682634830475,-0.10576456040143967,-0.08382091671228409,-0.010280725546181202,0.01902627758681774,-0.08938858658075333,0.09401510655879974,-0.05579225346446037,0.04274943843483925,0.028463637456297874,0.06103295832872391,-0.02652461640536785,0.10117612779140472,-0.03484243527054787,-0.028321577236056328,-0.018092500045895576,0.02922617644071579,0.013676933012902737,-0.023012680932879448,-0.09245380759239197,0.13875873386859894,-0.043849699199199677,0.06981468945741653,-0.055441632866859436,0.06666113436222076,0.034997083246707916,0.0066341254860162735,-0.05413714423775673,0.02686881273984909,-0.07472928613424301,-0.01588490605354309,0.05524330213665962,0.0036186876241117716,0.13612207770347595,0.007108512334525585,-0.034424927085638046,0.06767961382865906,-0.015752512961626053,0.08439946174621582,0.08452093601226807,0.06720713526010513,-0.048732463270425797,-0.01676386594772339,0.03697894886136055,-0.10120918601751328,0.04250399023294449,-0.017663877457380295,-0.046348508447408676,-0.10212008655071259,0.09319543838500977,-0.014368833042681217,-0.13073374330997467,-0.07269847393035889,-0.07029122114181519,0.11677462607622147,-4.788535079569556e-05,-0.07132850587368011,0.013767341151833534,-0.040754642337560654,0.09948621690273285,0.12365418672561646,-0.08851449191570282,0.10807300359010696,0.08993487805128098,0.03378047049045563,0.07794828712940216,0.05130855739116669,-0.11731260269880295,0.07672762125730515,0.012338824570178986,0.12478240579366684,0.03844161704182625,-0.03764008358120918,0.05700543522834778,-0.0484732910990715,-0.0011036328505724669,-0.040135569870471954,0.056184202432632446,0.06166259944438934,-0.028508242219686508,-0.06823360919952393,0.0407717227935791,-0.028998544439673424,0.08804886788129807,0.06301960349082947,-0.05469842255115509,-0.0349896140396595,-0.05029826611280441,0.1049659252166748,-0.027665935456752777,0.03125826641917229,-0.04508069530129433,-0.05782413110136986,0.03125908598303795,-0.05681353434920311,-0.024348396807909012,-0.01788937672972679,-0.0009775846265256405,0.04220397025346756,-0.015433866530656815,0.08782459795475006,0.008803969249129295,-0.012286650948226452,-0.038284145295619965,-0.008315903134644032,-0.09376157075166702,0.09458785504102707,0.020050425082445145,-0.0012894278625026345,0.10193970799446106,-0.038501981645822525,-0.052174851298332214,0.006100642029196024,0.11789168417453766,-0.006367894820868969,-0.07480604946613312,-0.03536495193839073,-0.03887414559721947,0.021537287160754204,0.0005678441375494003,-0.08419406414031982,-0.05262487381696701,-0.11168916523456573,0.05365613102912903,-0.02913125418126583,0.04592699930071831,0.08576697111129761,-0.009221484884619713,-0.027297014370560646,0.042242974042892456,-0.030234254896640778,0.04072706028819084,-0.04460558667778969,-0.08794593065977097,-0.05523829162120819,0.08253757655620575,-0.07276764512062073,-0.08661723136901855,0.052974678575992584,0.0981442928314209,-0.036983564496040344,-0.052369844168424606,-0.06477361172437668,0.06954338401556015,-0.03411608561873436,0.03794320672750473,0.05188959464430809,-0.0155897606164217,0.035309989005327225,0.0545540489256382,0.10329195857048035,-0.04539679363369942,-0.043846361339092255,-0.09304507821798325,0.008397327736020088,-0.07004312425851822,-0.06775366514921188,0.08352331072092056,0.07127928733825684,-0.04104697331786156,-0.04349933937191963,0.02333390899002552,0.09808887541294098,-0.00770207354798913,0.0037066282238811255,0.010734917595982552,-0.08244424313306808,-0.05541563406586647,-0.0895240306854248,0.07995200902223587,-0.09504024684429169,0.0042967414483428,-0.039252202957868576,-0.019732991233468056,0.05013538897037506,-0.04893315210938454,-0.06562097370624542,0.0743127092719078,0.015011620707809925,0.032306745648384094,0.032472338527441025,-0.044595684856176376,0.02491241693496704,-0.06365030258893967,0.021405959501862526,0.07315917313098907,0.029689384624361992,-0.07941348105669022,-0.08542205393314362,0.07777175307273865,0.005514711607247591,0.05476640537381172,0.09796597808599472,-0.012838959693908691,-0.022889932617545128,0.07079530507326126,0.0423557348549366,-0.04290347918868065,0.08899562805891037,-0.04409998655319214,0.056264959275722504,0.004722584038972855,-0.0729154646396637,0.04758760333061218,0.0443282425403595,-0.0012935874983668327,0.059928517788648605,0.08884283900260925,0.028561385348439217,-0.06424890458583832,-0.026534808799624443,-0.04510011523962021,0.09579828381538391,-0.07763537019491196,0.07111217081546783,-0.08959159255027771,0.06899969279766083,0.09707403928041458,-0.0338299535214901,0.01634261943399906,-0.027636965736746788,-0.03836815059185028,-0.03233635053038597,0.049988098442554474,0.054310187697410583,0.05036500468850136,0.09397628903388977,-0.06039205938577652,-0.0778324156999588,0.044430844485759735,0.060450177639722824,0.08883073180913925,0.09645303338766098,-0.026667101308703423,0.019110791385173798,-0.036182329058647156,-0.03359005227684975,0.02923811972141266,-0.09142596274614334,-0.05200788751244545,0.03339383006095886,-0.06471659988164902,0.03552683815360069,0.06012304872274399,-0.0630437508225441,0.08142360299825668,-0.020922312512993813,-0.0640358030796051,0.015376618131995201,0.06881105154752731,0.017079610377550125,0.06257082521915436,-0.07049571722745895,-0.074289470911026,0.006194719113409519,-0.03619571402668953,0.04312676936388016,-0.022221097722649574,0.03403885290026665,0.03669548034667969,0.07930440455675125,0.013432905077934265,-0.021980848163366318,0.055243659764528275,0.02968217246234417,-0.04518788680434227,-0.08232273906469345,-0.0165117084980011,0.0066210925579071045,0.009253086522221565,0.046638038009405136,0.037703584879636765,0.08578507602214813,-0.018079545348882675,-0.08187025040388107,0.09548880904912949,0.07231172919273376,0.02785317413508892,-0.024000225588679314,-0.09100550413131714,0.04160381481051445,-0.09840798377990723,0.09479917585849762,-0.029456205666065216,-0.03546461835503578,-0.07452598214149475,0.0961565375328064,0.08687619119882584,-0.03781721740961075,0.027864016592502594,-0.06717647612094879,0.06601140648126602,0.045629676431417465,0.004247899632900953,-0.05212552472949028,0.01227388996630907,0.043491438031196594,0.025185028091073036,-0.06905817240476608,0.06837007403373718,0.06714190542697906,-0.032867103815078735,0.028822967782616615,0.07897026836872101,0.07294566929340363,-0.0125860795378685,-0.0032339671161025763,-0.05377126857638359,0.006401891820132732,0.031703073531389236,0.019666900858283043,0.03816709294915199,-0.0074034882709383965,-0.043580275028944016,0.007702687755227089,-0.02902916446328163,-0.06681834906339645,-0.06922649592161179,0.052422113716602325,-0.05495769530534744,-0.05493298918008804,-0.0704038143157959,-0.013514754362404346,-0.052975866943597794,-0.03737032786011696,0.07153002172708511,-0.08281596004962921,-0.03581349179148674,-0.0676594227552414,-0.0031085647642612457,-0.05539500713348389,-0.09760177880525589,0.03290765732526779,0.0031493359711021185,0.06557534635066986,-0.08888424932956696,-0.09675019234418869,0.05648164078593254,-0.02073482982814312,0.06628455221652985,0.006516190245747566,-0.06373491883277893,0.03619658574461937,0.08187375217676163,-0.08222078531980515,0.020394643768668175,-0.051056645810604095,-0.08168895542621613,-0.006971124093979597,-0.00670818705111742,-0.010700243525207043,-0.07641281187534332,-0.004589303862303495,0.06460298597812653,0.024205641821026802,0.014320604503154755,-0.0551973320543766,-0.023003635928034782,-0.05208415910601616,0.04493311792612076,-0.07120808959007263,0.04213520511984825,0.043957144021987915,-0.04390518739819527,-0.0075477901846170425,-0.006673351861536503,0.06077967956662178,-0.061330270022153854,0.09937449544668198,0.058600492775440216,-0.0048912339843809605,0.008466356433928013,0.07950438559055328,0.04194573312997818,0.06133700907230377,-0.0975116640329361,0.02516595833003521,0.09616432338953018,-0.0979425236582756,0.05518970638513565,-0.0553259402513504,0.008413836359977722,0.03291423246264458,-0.08336789160966873,-0.012321136891841888,-0.08459760993719101,0.004816976375877857,-0.09159530699253082,0.0967688262462616,0.06621817499399185,0.007741888053715229,-0.008042970672249794,-0.0549909844994545,0.010440363548696041,-0.019312968477606773,0.05361510440707207,-0.05408281460404396,-0.08082453906536102,-0.06581641733646393,0.0216168612241745,0.013431892730295658,0.0566396564245224,0.09767234325408936,-0.08752588927745819,-0.033304039388895035,-0.0021261817310005426,0.027338268235325813,-0.06572171300649643,-0.06280631572008133,-0.09129078686237335,0.07140631973743439,-0.0727425068616867,0.05696013942360878,-0.08322345465421677,0.08893778175115585,0.05469988286495209,0.019634567201137543,-0.09474673867225647,-0.007549873553216457,-0.016545306891202927,-0.04410779848694801,-0.00739163625985384,0.0734676942229271,-0.1064985916018486,-0.07553492486476898,0.05547419562935829,-0.015916166827082634,0.043640680611133575,-0.018711579963564873,0.06586620956659317,-0.02826523780822754,0.05592513084411621,-0.1165972426533699,0.032193075865507126,0.03324520215392113,-0.030328430235385895,-0.04055675119161606,-0.06341913342475891,-0.002860136330127716,0.09200748801231384,0.05809088796377182,0.09265891462564468,-0.043933771550655365,-0.05152017995715141,0.024403050541877747,-0.035250622779130936,0.012901452369987965,-0.0032108635641634464,-0.02231130190193653,0.03707286715507507,0.06059766933321953,0.04925953596830368,-0.08924753218889236,-0.0739627555012703,0.07493946701288223,0.0535992830991745,-0.023522181436419487,-0.007837188430130482,-0.022495053708553314,-0.036038562655448914,0.05153729021549225,0.09645602852106094,-0.04152028635144234,-0.11149083822965622,-0.010792330838739872,-0.08598711341619492,0.12353680282831192,-0.04316415265202522,0.07945883274078369,-0.10349753499031067,0.0059629702009260654,-0.017911674454808235,-0.0981404110789299,-0.08871851861476898,0.04107055068016052,-0.024790771305561066,-0.030844630673527718,0.10611185431480408,-0.04508008062839508,0.1025979071855545,0.0997169017791748,0.05025842413306236,-0.048714540898799896,-0.03480184078216553,0.0088646924123168,-0.11097975820302963,0.000872710021212697,0.1205577552318573,-0.08607418835163116,-0.09799014031887054,-0.11226348578929901,-0.031429585069417953,0.07956773787736893,-0.03454059362411499,-0.07350297272205353,0.07900049537420273,0.023214930668473244,0.0757906585931778,-0.019791103899478912,-0.05977242812514305,-0.029931141063570976,0.01615903154015541,-0.0632316991686821,0.12367019057273865,-0.0760502964258194,0.04202154278755188,0.11673350632190704,-0.12170261144638062,-0.09728998690843582,-0.07584378123283386,0.04417986050248146,-0.053572554141283035,-0.0022533077280968428,-0.041090890765190125,-0.023180438205599785,-0.10405302792787552,-0.034299395978450775,-0.09010238200426102,-0.10195481032133102,-0.14252030849456787,0.04097306728363037,-0.0004336803685873747,0.09972322732210159,-0.01678258366882801,-0.012265985831618309,0.07806956022977829,0.06108579784631729,-0.026063337922096252,-0.06234636902809143,0.03257105126976967,0.09019868820905685,0.06083875149488449,-0.10660890489816666,-0.053439557552337646,-0.003544222330674529,-0.1078542172908783,-0.025408370420336723,0.16697147488594055,-0.07599183171987534,-0.09451482445001602,-0.054709721356630325,0.07371161133050919,0.01215268298983574,0.03239929676055908,-0.05020042881369591,0.005833518225699663,0.04053511098027229,0.037168193608522415,-0.13093222677707672,-0.017373185604810715,-0.06072245165705681,-0.0830819234251976,0.11267375946044922,0.0030327066779136658,0.11923554539680481,-0.031025640666484833,0.02328370325267315,-0.10605062544345856,-0.004887814167886972,0.022655414417386055,-0.07974191755056381,0.014893976971507072,0.15273182094097137,-0.18905699253082275,-0.020872704684734344,-0.09163445979356766,0.1544903665781021,0.0045941052958369255,0.0437299981713295,-0.004263653885573149,-0.048544742166996,0.08463207632303238,0.05053293704986572,-0.17090392112731934,-0.06571771204471588,-0.11717528104782104,-0.02606971748173237,0.017421523109078407,0.06906693428754807,0.009136945940554142,0.14048326015472412,0.12056099623441696,-0.1428394764661789,0.07919047027826309,-0.0341971255838871,-0.1394702047109604,0.08047762513160706,0.08264096826314926,-0.20700396597385406,0.010102425701916218,-0.08891955018043518,0.058451876044273376,-0.060451146215200424,-0.06064693257212639,-0.1089322417974472,-0.03061494044959545,0.02908898890018463,-0.05994836613535881,-0.09921722859144211,-0.021189771592617035,-0.009412980638444424,-0.12704254686832428,0.0474211759865284,0.12276455014944077,0.12608660757541656,0.04047529399394989,0.10137267410755157,-0.175615131855011,-0.06483018398284912,-0.07376981526613235,-0.18402591347694397,0.10300632566213608,0.10161799192428589,-0.23065851628780365,0.027128448709845543,0.029807740822434425,0.09550107270479202,0.06099539250135422,-0.07764949649572372,-0.12646083533763885,0.027550019323825836,0.0664806142449379,-0.021740630269050598,-0.16757258772850037,0.0512656606733799,0.06269853562116623,-0.02697780728340149,0.06970063596963882,0.10910128802061081,0.032040320336818695,-0.003126229392364621,0.05365851894021034,-0.17126791179180145,0.133417546749115,0.0686437115073204,-0.0798170417547226,0.03402839973568916,0.2231808602809906,-0.1579994261264801,-0.016781438142061234,0.05569835752248764,0.06230920925736427,-0.10307334363460541,0.020243067294359207,-0.08362720161676407,0.034286320209503174,0.12667617201805115,0.0015249154530465603,-0.21000617742538452,0.10974287986755371,0.06538568437099457,-0.08358665555715561,0.016772989183664322,0.024486320093274117,0.11601638793945313,0.02470237761735916,-0.01806495152413845,-0.09340333193540573,0.15432888269424438,0.0038087544962763786,-0.08826595544815063,0.12373392283916473,0.07964450865983963,-0.08544805645942688,-0.089101143181324,0.05502234026789665,0.14924579858779907,-0.0558498241007328,-0.03294699639081955,-0.07204847782850266,0.022003376856446266,-0.007842492312192917,-0.07074730098247528,-0.1083204373717308,0.026767928153276443,0.0030418767128139734,0.03199088200926781,0.13376210629940033,0.07772880047559738,0.0958348959684372,0.0888306125998497,0.08965355157852173,-0.10957419127225876,0.10046011209487915,-0.03304089605808258,-0.009987885132431984,-0.001721776439808309,0.21330168843269348,-0.10675489157438278,0.006515542510896921,-0.032523028552532196,0.17157229781150818,0.012125954031944275,-0.06554525345563889,-0.0648430734872818,0.010189461521804333,0.062079764902591705,0.09211160987615585,-0.12994393706321716,0.05134090036153793,0.09595264494419098,-0.07506676763296127,-0.06712307780981064,0.024298978969454765,0.07992969453334808,0.11002247780561447,0.03977746143937111,0.006693027913570404,0.06276793032884598,-0.02460145577788353,-0.03518010675907135,0.03323734924197197,0.15864047408103943,-0.1489049792289734,-0.038735952228307724,-0.01908278465270996,-0.00452823843806982,0.024167079478502274,0.12168972194194794,-0.05532680079340935,0.11523223668336868,-0.00921582244336605,-0.004096318501979113,-0.05188295990228653,0.14697176218032837,0.011203918606042862,-0.08827021718025208,0.09557954967021942,-0.01740841567516327,0.0756421908736229,0.05395234003663063,0.03711001202464104,-0.0841359943151474,0.10917308926582336,0.11633621156215668,0.09008806198835373,-0.05736803635954857,0.16644999384880066,-0.06209482625126839,0.06231297180056572,-0.01561362948268652,0.01962778903543949,-0.03656022995710373,0.006294243037700653,0.009856653399765491,-0.030040878802537918,-0.044861678034067154,0.04756834730505943,0.0049681467935442924,0.00450322637334466,0.03289055824279785,-0.006805402226746082,0.07285317778587341,-0.0015568833332508802,0.009221787564456463,-0.04496275633573532,0.03394488990306854,-0.059714026749134064,0.11520612239837646,0.05540722608566284,-0.009322590194642544,0.07856876403093338,0.15838606655597687,0.029793867841362953,-0.027905885130167007,0.0913802906870842,0.04682772979140282,0.015787916257977486,0.007647679653018713,0.057878825813531876,0.031126193702220917,0.004335455130785704,-0.11938986927270889,-0.0025024760980159044,0.03533212095499039,-0.018415477126836777,0.016418326646089554,-0.02593405544757843,-0.027137108147144318,0.05813724547624588,-0.06647348403930664,0.04750789701938629,0.03506406769156456,0.08295046538114548,0.04953797161579132,0.12051235139369965,-0.10270767658948898,0.06378420442342758,0.014350888319313526,0.019520146772265434,0.040197666734457016,0.020467661321163177,-0.06642943620681763,0.0652664303779602,0.07839396595954895,0.11167316883802414,0.06750217825174332,0.05410711467266083,-0.027028046548366547,0.03253733739256859,0.14548185467720032,-0.018293237313628197,0.0013792497338727117,0.02524716593325138,-0.052507273852825165,0.07895750552415848,0.08175644278526306,0.06856812536716461,0.11147492378950119,0.04133834317326546,0.035757195204496384,0.01191205158829689,-0.013835721649229527,0.05576713755726814,0.08108991384506226,0.03782918304204941,0.042807452380657196,-0.013998039998114109,0.08667010813951492,0.08318906277418137,-0.07772960513830185,0.03682340681552887,0.041205961257219315,-0.02799846976995468,0.11074858903884888,0.05483667925000191,-0.011181353591382504,0.04804391786456108,-0.0963464081287384,0.008441135287284851,0.0043207197450101376,0.00957342330366373,-0.05476462095975876,0.004622368607670069,0.041336964815855026,0.1366644948720932,0.09133727103471756,-0.07319854944944382,0.038019075989723206,-0.05536363273859024,-0.022668851539492607,-0.05978774279356003,0.060375917702913284,0.019377367570996284,-0.046955183148384094,0.0947352722287178,0.04339103028178215,-0.08916950225830078,-0.0385591946542263,0.06310324370861053,0.0022629292216151953,-0.02651907131075859,-0.014137860387563705,0.056193530559539795,0.046044278889894485,0.06554211676120758,-0.005869410932064056,0.039259158074855804,-0.014455488882958889,0.0738808885216713,0.09028241783380508,-0.07894469797611237,-0.06516870856285095,0.0406128466129303,-0.06379912048578262,-0.0769132450222969,0.0512966588139534,-0.033619802445173264,-0.015197793953120708,0.08345210552215576,-0.006773786153644323,-0.06183013692498207,-0.04059314727783203,0.09071998298168182,-0.05426749587059021,0.08720868825912476,-0.025778736919164658,0.09365316480398178,0.026455996558070183,-0.0060152821242809296,-0.05017634481191635,0.08848778903484344,-0.07490076124668121,-0.07919474691152573,-0.06568334251642227,0.02617919072508812,-0.07575632631778717,0.034100018441677094,-0.052183907479047775,0.11373880505561829,-0.046038806438446045,0.029605159536004066,-0.009248880669474602,-0.08389674127101898,-0.02327568642795086,0.026629401370882988,-0.015436399728059769,-0.07111676037311554,0.049657806754112244,0.044543877243995667,0.05515282601118088,0.02420506812632084,0.06488291174173355,0.08871205896139145,0.016950443387031555,-0.029705768451094627,0.03183697164058685,0.028843261301517487,0.04627887159585953,-0.047419968992471695,0.00383780593983829,0.03746582940220833,0.042012400925159454,-0.007921186275780201,0.07811672985553741,0.021394286304712296,-0.03292981907725334,-0.07244236767292023,0.08143628388643265,0.006089580710977316,0.061687324196100235,-0.08857908099889755,-0.022673441097140312,0.0028428107034415007,0.0242591705173254,-0.08798995614051819,0.06842949241399765,0.06797625869512558,-0.05849221721291542,0.027093254029750824,0.0901905745267868,0.00845964252948761,0.09008602797985077,-0.04539663344621658,0.04451730474829674,0.02048550173640251,-0.02950432151556015,0.02941257692873478,-0.03603561967611313,0.01838969625532627,-0.027179040014743805,0.09112414717674255,0.015378737822175026,-0.053330786526203156,-0.07550910115242004,-0.08658687025308609,-0.0725221335887909,0.06304973363876343,0.01816253922879696,-0.026532508432865143,-0.043545082211494446,0.03492683544754982,0.010242311283946037,-0.06577837467193604,0.09733100980520248,-0.021725060418248177,0.06031397730112076,0.09199018031358719,-0.06378661096096039,0.006681209895759821,0.07057139277458191,-0.0474938340485096,0.046238094568252563,-0.009419235400855541,0.0459742546081543,-0.05910436064004898,-0.056945450603961945,-0.09844374656677246,0.013272245414555073,-0.016070563346147537,-0.04800958186388016,-0.09426270425319672,0.007073663640767336,-0.002829364500939846,-0.046524036675691605,-0.028117170557379723,-0.01855277270078659,-0.004882115870714188,0.04996209219098091,-0.019637184217572212,-0.012552500702440739,0.06659243255853653,0.07992371916770935,0.019248880445957184,0.07948710024356842,0.060651060193777084,-0.008529948070645332,-0.08640298247337341,-0.052985742688179016,0.01991414837539196,-0.0063943322747945786,0.02099788933992386,0.04273909702897072,-0.029126908630132675,0.048346202820539474,0.006516406778246164,-0.08941415697336197,-0.02591903880238533,-0.07037727534770966,0.01118544116616249,0.07624493539333344,0.03501985967159271,-0.0858839675784111,-0.01883029006421566,-0.09516560286283493,-0.08258496969938278,0.033511336892843246,0.0689370408654213,-0.01029761042445898,-0.010783323086798191,-0.04891529679298401,-0.018477652221918106,0.08537603914737701,-0.046271469444036484,0.09398160874843597,0.009537296369671822,0.0853760689496994,-0.0471281073987484,-0.021858910098671913,0.0246028620749712,-0.06744720786809921,0.08082760125398636,-0.0071457745507359505,0.08515195548534393,-0.06977321952581406,-0.09854889661073685,0.05187560245394707,-0.0812792181968689,0.008777628652751446,0.07768864929676056,0.08624393492937088,-0.0316154882311821,-0.062457527965307236,0.059146471321582794,0.04719347506761551,-0.04059284180402756,-0.05166105926036835,0.006152233574539423,-0.03729427233338356,0.0006847941549494863,-0.059777434915304184,0.08919345587491989,0.05204679071903229,-0.07851898670196533,-0.009264685213565826,-0.05724221095442772,-0.041231319308280945,0.054393310099840164,-0.052185676991939545,0.0035648078192025423,0.07819119840860367,0.06894377619028091,-0.02373335510492325,0.07736970484256744,0.07620715349912643,0.037866685539484024,0.0744251236319542,0.06797069311141968,-0.061541419476270676,-0.09064067155122757,0.002347886096686125,0.0672798901796341,-0.033131349831819534,0.08337672054767609,0.03056028112769127,-0.02478901296854019,-0.03231589496135712,0.06616728752851486,0.05904829502105713,-0.05230235308408737,0.001848101383075118,0.04969644173979759,0.08689431101083755,-0.07444193214178085,0.022549591958522797,-0.09442614018917084,0.08974030613899231,-0.06349099427461624,0.0747610405087471,-0.0545358769595623,0.025545643642544746,0.0027480300050228834,0.04133724421262741,-0.05928942561149597,-0.03688877448439598,-0.07759185135364532,-0.09951527416706085,-0.0260724239051342,0.054819077253341675,0.015496615320444107,-0.016579940915107727,0.08824162930250168,-0.05664985254406929,-0.048602066934108734,0.09445950388908386,0.07895050197839737,0.017505964264273643,0.08075522631406784,-0.045354608446359634,-0.03981364518404007,0.05546361207962036,0.03068436123430729,-0.05478408560156822,0.056396376341581345,0.05880322679877281,0.05143151804804802,-0.06565344333648682,-0.08414562791585922,-0.07833115011453629,0.0359751395881176,-0.11351528763771057,-0.03305516391992569,0.0085363844409585,-0.007578300312161446,0.07697554677724838,0.042914532124996185,-0.003181958571076393,0.005091233644634485,-0.06646069139242172,0.04127022251486778,0.03006838448345661,0.04872904717922211,0.07575718313455582,-0.03187721595168114,-0.05375757813453674,-0.09078305214643478,-0.09929712861776352,0.0321800597012043,0.07893056422472,0.07017093151807785,0.050270240753889084,0.03652483597397804,0.000919173180591315,-0.07291939109563828,0.039344172924757004,-0.08468129485845566,0.09771233797073364,-0.04284736514091492,-0.06723405420780182,-0.07103969901800156,-0.021734368056058884,-0.02553357183933258,-0.036804500967264175,-0.0636453852057457,-0.0968913584947586,-0.0888441726565361,-0.037913620471954346,0.04641399532556534,-0.08326729387044907,-0.02156074531376362,-0.050444476306438446,0.04615665599703789,0.057696640491485596,-0.004972717724740505,-0.08976143598556519,-0.021795202046632767,0.023060601204633713,-0.020129701122641563,-0.010233800858259201,-0.02832379750907421,-0.05952952057123184,0.023240989074110985,-0.03320679813623428,-0.0514751560986042,-0.06246938556432724,-0.0965755507349968,0.09726360440254211,-0.09948335587978363,0.02567094750702381,-0.07087559998035431,0.03587592765688896,-0.041195549070835114,0.0018691935110837221,-0.1319752037525177,-0.11268230527639389,0.015290617942810059,-0.07114215195178986,0.07035830616950989,0.031300101429224014,0.07618590444326401,0.11838020384311676,-0.045131534337997437,-0.09552396833896637,-0.028100719675421715,-0.02114148996770382,-0.018752966076135635,-0.02512294426560402,-0.018959393724799156,0.010285424999892712,-0.04799279570579529,0.006485084071755409,0.05569326877593994,0.07636876404285431,0.0010910045821219683,0.03009921684861183,-0.06990531831979752,0.0230176392942667,0.09169884771108627,-0.026001622900366783,0.018894987180829048,-0.01580069772899151,0.008880708366632462,0.09280159324407578,-0.054184142500162125,0.10625876486301422,0.0031585884280502796,0.06447330117225647,-0.06648202240467072,-0.006494268774986267,-0.07871381938457489,-0.13051959872245789,-0.022518819198012352,0.14651964604854584,-0.1552249640226364,-0.0924965888261795,-0.0738191083073616,0.008478956297039986,-0.0787213072180748,-0.11038710176944733,-0.07767848670482635,-0.09483057260513306,0.07387590408325195,0.04983627796173096,-0.16949576139450073,-0.11649645119905472,-0.058939844369888306,-0.11192714422941208,-0.05117814242839813,0.008743112906813622,-0.010549928992986679,0.05596011504530907,-0.05221237987279892,0.022633250802755356,-0.04928324371576309,-0.06236421316862106,-0.04720945283770561,-0.024904055520892143,0.05952092260122299,-0.15433254837989807,-0.07049360126256943,0.06628865748643875,0.08063841611146927,0.09917089343070984,-0.060380104929208755,-0.1180080845952034,-0.027325784787535667,0.06266015768051147,-0.055505864322185516,-0.21572406589984894,0.009162048809230328,-0.026782695204019547,-0.0924907773733139,0.0668293759226799,-0.03223484009504318,-0.034961044788360596,0.014579479582607746,-0.057648930698633194,-0.1571059376001358,-0.10503291338682175,-0.04460049048066139,0.00992567464709282,0.015338368713855743,0.18042168021202087,-0.06785059720277786,-0.03894995152950287,-0.006730510853230953,0.16772307455539703,0.02616221085190773,0.030805544927716255,0.04628266394138336,0.0164207573980093,-0.03306775540113449,0.015107258222997189,-0.12774714827537537,-0.11413063853979111,-0.05635809525847435,0.0038944787811487913,0.08042408525943756,0.039799854159355164,0.12828819453716278,-0.007487832102924585,0.015209745615720749,-0.07319074869155884,0.07478377968072891,0.04691516235470772,-0.12498091906309128,0.15773487091064453,0.033831287175416946,-0.19175773859024048,-0.03279366344213486,-0.03506544232368469,0.08473308384418488,0.11880047619342804,-0.09909018129110336,-0.03097170777618885,-0.02517453022301197,-0.023089563474059105,0.09451013058423996,-0.09103851020336151,0.03875136747956276,-0.057602230459451675,-0.10129933059215546,0.08782639354467392,0.05162179097533226,0.10874880850315094,0.13289493322372437,-0.025377463549375534,-0.02859663963317871,-0.00712518161162734,0.03673195093870163,0.00883268192410469,0.038327738642692566,0.08790285885334015,-0.023196492344141006,0.015371084213256836,-0.040675729513168335,0.1817125380039215,0.009465242736041546,-0.046859148889780045,0.09494366496801376,-0.08359533548355103,0.043091289699077606,0.062141504138708115,-0.19050177931785583,-0.13203085958957672,-0.03969143331050873,0.08490895479917526,0.1414814442396164,0.09420638531446457,0.05530307814478874,0.12073937803506851,0.0328357107937336,-0.00888331513851881,-0.04774102568626404,0.02182273007929325,0.0009325977880507708,0.09150613844394684,0.19311484694480896,-0.1260806918144226,-0.04061363264918327,0.04587401822209358,0.15661081671714783,0.08215676248073578,-0.02258024364709854,-0.01322703342884779,-0.10716407746076584,0.10882358998060226,-0.07113971561193466,-0.10789060592651367,-0.08345916122198105,-0.0011164688039571047,-0.03958539664745331,0.08213745057582855,0.06419990956783295,0.1304832398891449,0.13594631850719452,0.07053858786821365,0.023568034172058105,-0.05950829014182091,-0.013373036868870258,0.0510210245847702,0.059915345162153244,0.10313882678747177,-0.16801239550113678,-0.0551440455019474,-0.02448027953505516,0.1501377820968628,-0.014550522901117802,0.013533166609704494,0.09710712730884552,-0.020848803222179413,-0.0005155412945896387,0.021867450326681137,-0.1084350124001503,-0.05564079433679581,-0.05163021758198738,-0.014893744140863419,-0.04064932093024254,0.1479097604751587,0.028687909245491028,0.17783792316913605,-0.03211143612861633,-0.05414740368723869,-0.07290029525756836,-0.10837577283382416,-0.004435028415173292,0.1299923062324524,0.1053101047873497,0.0015876623801887035,0.036292873322963715,0.07580926269292831,0.14558157324790955,0.14268858730793,-0.0880148634314537,-0.008020911365747452,0.00428852578625083,0.12341567873954773,-0.049343615770339966,-0.17658032476902008,-0.08044975996017456,-0.04861415550112724,0.050120189785957336,0.09616886079311371,0.054764796048402786,0.0675891563296318,0.10043039917945862,0.0596892386674881,0.0695132166147232,0.08519623428583145,0.03637279197573662,0.008817171677947044,0.05875640735030174,0.15829998254776,0.025812732055783272,-0.0438511036336422,-0.07166168093681335,0.10787899792194366,0.10315586626529694,-0.038407742977142334,-0.06919272989034653,0.06810929626226425,0.09079122543334961,-0.0655331090092659,0.002509787678718567,-0.10682166367769241,0.04193704575300217,0.054211921989917755,0.1039547473192215,0.0743941068649292,-0.07785607129335403,0.056363847106695175,0.027672037482261658,-0.02459612675011158,0.09228374063968658,-0.02599247917532921,-0.05012206360697746,0.07316432893276215,0.10122963786125183,-0.02665458619594574,0.025085385888814926,0.040884122252464294,0.06153485178947449,-0.017578251659870148,-0.07494359463453293,0.09118436276912689,-0.04090290889143944,0.00023549202887807041,0.0650930404663086,-0.02724892646074295,0.06028570979833603,0.0570911280810833,-0.018158884719014168,0.004420807585120201,0.0076973820105195045,0.00794932246208191,0.1118936613202095,0.06539013236761093,0.09080623835325241,0.13188086450099945,-0.07494079321622849,-0.032959457486867905,-0.05412747710943222,0.04223813861608505,0.0075758155435323715,0.011199838481843472,-0.029908325523138046,-0.000994259025901556,0.04870225116610527,0.06692542135715485,0.09510520845651627,-0.08942334353923798,0.06811757385730743,0.0653417780995369,0.029908141121268272,0.015437054447829723,0.026290562003850937,0.010825840756297112,0.033642373979091644,-0.01932872273027897,0.07211371511220932,-0.05211354419589043,-0.025584761053323746,0.0001024235098157078,0.12469013035297394,-0.07014962285757065,-0.035858165472745895,0.10921144485473633,0.11109279096126556,0.05278264731168747,0.04945589229464531,0.01759674958884716,0.13376320898532867,0.019199447706341743,0.005963397212326527,0.10478559136390686,0.013550357893109322,0.028604352846741676,-0.067055344581604,0.05037983879446983,0.012577878311276436,0.01870807632803917,-0.08987337350845337,-0.031315453350543976,0.018914328888058662,0.06228216737508774,0.1015414446592331,-0.008487900719046593,0.032888464629650116,0.04221167042851448,0.10787633061408997,-0.0035919598303735256,-0.001599678653292358,0.09638450294733047,-0.028236744925379753,0.08274970948696136,0.05622028931975365,0.08333117514848709,0.023812396451830864,-0.038019321858882904,0.08324320614337921,0.026431117206811905,0.05792800337076187,-0.06394028663635254,-0.008592535741627216,-0.018252072855830193,-0.051677193492650986,0.033291663974523544,-0.07407157123088837,0.00718790153041482,0.057597264647483826,-0.05420040339231491,0.08246033638715744,0.12931667268276215,0.0026347509119659662,0.04716862365603447,0.1315077245235443,0.023449113592505455,0.04934157058596611,0.07832548767328262,0.11988766491413116,0.036883238703012466,-0.049484558403491974,0.07078112661838531,-0.030328046530485153,-0.05531882122159004,0.027004048228263855,-0.06665854156017303,